~o
<STREAMINFO> 1 39
<VECSIZE> 39<NULLD><MFCC_D_A_0><DIAGC>
~s "silst"
<MEAN> 39
 -1.567703e+01 -7.918895e+00 -8.501272e+00 -5.916318e+00 -3.112394e+00 -4.424375e+00 -1.508019e+00 7.924496e-01 -1.847905e+00 -2.358128e+00 -2.530126e+00 2.140858e-01 4.217463e+01 -1.254988e-01 2.161477e-01 -1.070624e-01 1.030663e-01 3.655976e-02 1.809179e-01 2.141905e-02 -5.678879e-02 2.874772e-02 7.900256e-02 7.745635e-02 3.144272e-02 -5.728611e-01 -9.816052e-03 9.281992e-02 6.482010e-02 2.366904e-02 1.851688e-03 1.157748e-02 -5.663285e-03 -1.655584e-02 2.667083e-03 3.671612e-02 1.569434e-02 -1.719346e-02 2.474749e-02
<VARIANCE> 39
 2.245972e+01 2.872950e+01 2.713432e+01 2.960408e+01 2.990100e+01 3.228512e+01 3.392463e+01 3.494143e+01 3.272065e+01 3.367573e+01 2.851257e+01 2.287121e+01 2.976359e+01 6.484053e-01 9.304802e-01 1.024931e+00 1.229359e+00 1.389731e+00 1.675934e+00 1.794500e+00 1.871300e+00 1.893328e+00 1.937125e+00 1.722218e+00 1.535143e+00 5.800741e-01 9.824736e-02 1.395282e-01 1.781850e-01 2.194588e-01 2.633611e-01 3.100338e-01 3.435439e-01 3.528086e-01 3.644681e-01 3.710964e-01 3.320270e-01 3.016341e-01 6.136493e-02
<GCONST> 9.993454e+01
~h "b"
<BEGINHMM>
<NUMSTATES> 5
<STATE> 2
<MEAN> 39
 -5.659585e+00 3.564776e+00 -2.526639e+00 -1.397793e+00 -2.505080e+00 -2.454866e+00 -7.342317e+00 -8.508601e+00 -8.746063e+00 -4.636604e+00 -3.279003e+00 -4.392478e+00 4.026682e+01 -1.113836e+00 1.423807e+00 8.624391e-01 1.387425e+00 9.870226e-01 5.991368e-01 6.968459e-01 -2.110853e-01 -3.154348e-01 -5.649782e-01 -4.195117e-01 -4.391138e-02 -1.912603e+00 -1.906919e-01 -1.028870e+00 -2.229696e-01 -7.453946e-01 -4.956545e-01 -3.189448e-01 -4.878593e-02 5.938984e-01 5.510383e-01 3.547667e-01 1.281950e-01 2.054519e-01 1.419214e+00
<VARIANCE> 39
 3.040971e+01 2.251642e+01 2.057148e+01 2.994731e+01 2.204621e+01 3.208675e+01 3.598098e+01 3.238519e+01 3.322383e+01 3.183443e+01 3.235353e+01 2.676676e+01 2.404734e+01 2.607716e+00 4.714349e+00 3.114279e+00 4.480673e+00 3.175937e+00 3.528990e+00 3.847149e+00 4.406427e+00 4.269695e+00 3.488270e+00 2.979603e+00 2.498797e+00 6.397932e+00 3.781298e-01 6.947178e-01 6.837953e-01 7.416044e-01 6.427824e-01 6.356543e-01 8.791028e-01 8.429995e-01 7.846106e-01 7.217497e-01 6.340776e-01 5.320168e-01 8.550205e-01
<GCONST> 1.270935e+02
<STATE> 3
<MEAN> 39
 -1.196952e+01 1.966835e+00 -1.983472e+00 -3.365635e-02 -8.715374e-01 -8.179787e-01 -4.129854e+00 -4.858177e+00 -5.531554e+00 -3.324155e+00 -2.862216e+00 -2.770028e+00 3.760122e+01 -3.339635e-01 -2.171040e+00 -7.970741e-01 -1.740373e+00 -1.026636e+00 -8.268661e-01 1.172345e-01 1.061681e+00 1.325764e+00 7.876559e-01 5.201791e-01 5.748580e-01 3.547059e+00 8.323203e-01 -8.451859e-01 -4.071824e-01 -1.179408e+00 -8.522669e-01 -4.606310e-01 -4.534034e-01 5.841056e-02 9.849109e-02 2.639967e-01 2.064177e-01 2.418000e-02 1.839598e+00
<VARIANCE> 39
 4.442437e+01 2.441348e+01 1.793761e+01 2.243180e+01 1.670737e+01 2.147762e+01 2.749598e+01 3.409744e+01 3.438981e+01 2.926349e+01 2.331376e+01 1.959496e+01 3.697647e+01 3.976300e+00 3.225121e+00 3.039254e+00 4.368768e+00 3.083622e+00 3.459787e+00 3.904222e+00 4.127376e+00 4.056961e+00 3.421148e+00 3.000345e+00 2.319069e+00 7.863428e+00 5.537264e-01 6.866532e-01 8.809736e-01 7.784870e-01 7.028357e-01 8.147044e-01 7.554762e-01 8.849741e-01 9.023454e-01 7.968544e-01 6.961212e-01 4.978953e-01 7.410158e-01
<GCONST> 1.269618e+02
<STATE> 4
<MEAN> 39
 -9.265397e+00 -5.965903e+00 -6.102189e+00 -8.540062e+00 -6.386006e+00 -5.874122e+00 -5.719711e+00 -3.013280e+00 -2.055385e+00 -8.593553e-01 -1.120015e+00 -1.284522e+00 5.501291e+01 2.346425e+00 -2.731952e+00 -1.058028e+00 -3.648717e+00 -2.502851e+00 -1.050414e+00 -1.187883e+00 6.186212e-01 5.111805e-01 7.864044e-01 5.255015e-01 1.602187e-01 5.369404e+00 4.541871e-01 3.205719e-01 2.016075e-01 1.878153e-02 -4.193554e-02 3.440476e-01 -2.109006e-01 -1.531193e-01 -4.472689e-01 -1.714600e-01 -1.676441e-01 -2.453283e-01 -7.607383e-01
<VARIANCE> 39
 4.161507e+01 2.244443e+01 3.429769e+01 4.795685e+01 3.143522e+01 4.132300e+01 3.667588e+01 3.284688e+01 3.184936e+01 2.882414e+01 2.735894e+01 2.070637e+01 4.364860e+01 5.806204e+00 5.308636e+00 7.977320e+00 7.376077e+00 6.203906e+00 7.230208e+00 7.155676e+00 7.056924e+00 7.297470e+00 5.487365e+00 5.112076e+00 3.869952e+00 6.365657e+00 7.957154e-01 6.673288e-01 5.984432e-01 9.440163e-01 7.888241e-01 8.359591e-01 9.101900e-01 8.940804e-01 8.703950e-01 7.343572e-01 7.071933e-01 5.324638e-01 9.121609e-01
<GCONST> 1.375349e+02
<TRANSP> 5
 0.000000e+00 1.000000e+00 0.000000e+00 0.000000e+00 0.000000e+00
 0.000000e+00 6.279930e-01 3.720069e-01 0.000000e+00 0.000000e+00
 0.000000e+00 0.000000e+00 5.049507e-01 4.950493e-01 0.000000e+00
 0.000000e+00 0.000000e+00 0.000000e+00 4.622445e-01 5.377555e-01
 0.000000e+00 0.000000e+00 0.000000e+00 0.000000e+00 0.000000e+00
<ENDHMM>
~h "d"
<BEGINHMM>
<NUMSTATES> 5
<STATE> 2
<MEAN> 39
 -7.822300e+00 2.448342e-01 1.130059e+00 -9.176035e-01 -8.082123e+00 -7.931191e+00 -7.576520e+00 -5.111320e+00 -5.802165e+00 -5.022931e+00 -6.326300e+00 -3.632246e+00 4.404288e+01 -1.204541e+00 1.672225e+00 1.721417e-01 1.299559e+00 1.880497e+00 1.184334e+00 5.224534e-01 -6.559811e-01 -1.644560e-01 -2.503681e-01 -3.465045e-01 -5.157509e-01 -2.487669e+00 -2.024177e-01 -9.847377e-01 -2.976355e-01 -9.608271e-01 -2.256633e-01 8.575906e-02 -1.140173e-02 4.946750e-01 2.211100e-01 2.904375e-01 4.479181e-01 2.758847e-01 1.360354e+00
<VARIANCE> 39
 3.224584e+01 4.416502e+01 3.800497e+01 5.811346e+01 5.237380e+01 4.398944e+01 4.032091e+01 4.768721e+01 4.727436e+01 3.897922e+01 3.644770e+01 3.111514e+01 6.027155e+01 2.889504e+00 6.589062e+00 3.639119e+00 6.546049e+00 5.414325e+00 5.143227e+00 5.335297e+00 5.495872e+00 4.736220e+00 4.112261e+00 3.936851e+00 3.282920e+00 8.902780e+00 4.137315e-01 9.836182e-01 5.517868e-01 9.169886e-01 9.366360e-01 7.920035e-01 9.853551e-01 8.956058e-01 8.245197e-01 7.996185e-01 7.228341e-01 5.982174e-01 1.341409e+00
<GCONST> 1.381656e+02
<STATE> 3
<MEAN> 39
 -1.254694e+01 5.119004e-03 -2.804538e-01 -7.138729e-01 -3.550694e+00 -3.398427e+00 -5.411621e+00 -4.534836e+00 -5.176895e+00 -3.679314e+00 -4.697197e+00 -3.405469e+00 4.092125e+01 -1.361905e+00 -2.058716e+00 -6.948426e-01 -1.943209e+00 8.602986e-02 5.660474e-01 4.733691e-01 8.829858e-01 7.223117e-01 6.303661e-01 1.029264e+00 7.422634e-01 2.672194e+00 3.685550e-01 -7.120335e-01 -1.009699e-01 -8.945922e-01 -9.184480e-01 -6.410038e-01 -2.905305e-01 3.347026e-01 1.488232e-01 1.729532e-01 1.944183e-01 2.289473e-01 1.728888e+00
<VARIANCE> 39
 4.268222e+01 4.135300e+01 3.402689e+01 4.231434e+01 3.969260e+01 3.686440e+01 3.640642e+01 3.794581e+01 3.679443e+01 2.966954e+01 2.774336e+01 2.273955e+01 7.619191e+01 3.797730e+00 5.185161e+00 3.782848e+00 5.375997e+00 4.661004e+00 5.078358e+00 4.928954e+00 5.035841e+00 4.724035e+00 3.857428e+00 3.418497e+00 2.764358e+00 1.067087e+01 6.018944e-01 9.294282e-01 6.567695e-01 8.704674e-01 8.929725e-01 8.901736e-01 9.137616e-01 8.992473e-01 8.453303e-01 7.009799e-01 6.972503e-01 5.655585e-01 1.295142e+00
<GCONST> 1.358441e+02
<STATE> 4
<MEAN> 39
 -1.470278e+01 -7.341466e+00 -2.452567e+00 -9.482327e+00 -7.477800e+00 -5.795237e+00 -4.919450e+00 -1.621605e+00 -2.640101e+00 -1.742687e+00 -1.879338e+00 -3.965526e-01 5.573411e+01 8.437038e-01 -1.176521e+00 -1.305135e-01 -1.655121e+00 -1.621454e+00 -1.339939e+00 -8.378162e-01 7.428387e-01 3.717075e-01 3.165875e-01 2.357342e-01 2.966551e-01 3.496712e+00 7.815965e-01 3.005129e-01 5.852111e-02 4.375452e-01 -2.113607e-01 -1.626499e-01 -3.127067e-01 -3.916576e-02 -1.941685e-01 -7.176011e-02 -2.639315e-01 -2.899209e-01 -6.986104e-01
<VARIANCE> 39
 5.212772e+01 4.274048e+01 4.439183e+01 4.640909e+01 5.093816e+01 5.170063e+01 4.806097e+01 4.049737e+01 3.886547e+01 2.908436e+01 2.740343e+01 2.295316e+01 6.491081e+01 7.240043e+00 4.810957e+00 4.324655e+00 6.170774e+00 6.107252e+00 6.187419e+00 6.656586e+00 5.482607e+00 5.248650e+00 4.059827e+00 4.403529e+00 3.281712e+00 1.186700e+01 8.269002e-01 9.696885e-01 8.727852e-01 1.030998e+00 1.231144e+00 1.407651e+00 1.098773e+00 9.974489e-01 9.485804e-01 7.968183e-01 8.167062e-01 6.515417e-01 1.450698e+00
<GCONST> 1.421577e+02
<TRANSP> 5
 0.000000e+00 1.000000e+00 0.000000e+00 0.000000e+00 0.000000e+00
 0.000000e+00 4.946758e-01 5.053242e-01 0.000000e+00 0.000000e+00
 0.000000e+00 0.000000e+00 3.711975e-01 6.288025e-01 0.000000e+00
 0.000000e+00 0.000000e+00 0.000000e+00 5.149440e-01 4.850560e-01
 0.000000e+00 0.000000e+00 0.000000e+00 0.000000e+00 0.000000e+00
<ENDHMM>
~h "f"
<BEGINHMM>
<NUMSTATES> 5
<STATE> 2
<MEAN> 39
 -1.627147e+01 -5.125346e+00 -6.585896e+00 -5.612094e+00 -3.514825e+00 -3.393677e+00 -2.414741e+00 -9.900147e-01 -2.208241e+00 -1.466538e+00 -2.865515e+00 -1.408364e+00 5.293936e+01 -4.100227e+00 -2.345985e-01 -3.045885e-01 9.363775e-01 6.176264e-01 4.861591e-01 7.556192e-01 5.746966e-01 7.328895e-01 3.411044e-01 4.185222e-01 6.149803e-01 -9.558707e-01 3.171383e-01 -4.915254e-01 -1.927457e-01 -4.998963e-01 -4.662381e-01 -2.217357e-01 -3.557239e-01 -1.971356e-02 -6.367922e-02 8.312645e-02 5.005132e-02 -3.315211e-02 3.352154e-01
<VARIANCE> 39
 5.385622e+01 1.794005e+01 2.046672e+01 2.242821e+01 1.948176e+01 2.738685e+01 2.412700e+01 2.360049e+01 2.396903e+01 2.298711e+01 1.959620e+01 1.652332e+01 3.708150e+01 4.934992e+00 3.716976e+00 4.493982e+00 5.233609e+00 4.114007e+00 4.725604e+00 4.605639e+00 4.115632e+00 4.053048e+00 3.644123e+00 3.652412e+00 2.740585e+00 3.170389e+00 1.042109e+00 5.696010e-01 5.483538e-01 6.728016e-01 5.899854e-01 5.935484e-01 6.790395e-01 6.584761e-01 6.197054e-01 5.842193e-01 5.055116e-01 4.514930e-01 4.849747e-01
<GCONST> 1.245454e+02
<STATE> 3
<MEAN> 39
 -2.398194e+01 -8.511045e+00 -9.442128e+00 -6.478987e+00 -4.977780e+00 -3.946937e+00 -3.058519e+00 -3.298959e-01 -1.096038e+00 -1.686612e-01 -1.703687e+00 -8.534729e-02 5.297250e+01 5.214499e-03 -1.975644e-01 -1.775680e-01 -1.103240e-01 -7.710990e-02 -4.663651e-02 -6.833131e-02 -4.325722e-02 5.123280e-02 8.905528e-02 4.246261e-02 1.124712e-02 1.073300e-01 8.338990e-01 1.531597e-01 1.495808e-01 -9.203980e-02 -8.023402e-03 -5.573855e-02 -1.018630e-01 -9.642284e-02 -9.734190e-02 -7.878732e-02 -6.961963e-02 -1.129708e-01 1.078258e-01
<VARIANCE> 39
 1.023590e+01 1.267589e+01 1.086810e+01 1.222130e+01 1.268268e+01 1.364231e+01 1.461826e+01 1.406519e+01 1.384760e+01 1.379003e+01 1.309578e+01 1.168827e+01 2.486681e+01 2.092144e+00 9.834142e-01 1.148829e+00 1.239879e+00 1.369471e+00 1.406720e+00 1.527080e+00 1.579135e+00 1.587019e+00 1.532228e+00 1.437700e+00 1.314518e+00 1.522180e+00 4.953018e-01 2.427402e-01 2.854705e-01 3.465031e-01 3.439013e-01 3.788967e-01 4.057269e-01 3.929337e-01 3.841652e-01 3.519745e-01 3.523430e-01 3.077961e-01 3.045350e-01
<GCONST> 9.624683e+01
<STATE> 4
<MEAN> 39
 -1.761871e+01 -7.219193e+00 -7.992100e+00 -6.895967e+00 -4.532382e+00 -3.965282e+00 -2.931884e+00 -9.995620e-01 -1.231582e+00 -3.597891e-01 -1.965617e+00 -8.395173e-01 5.315166e+01 4.650615e+00 1.877486e-01 1.796171e-01 -1.338233e+00 -1.028427e+00 -5.445673e-01 -1.153496e+00 -5.707720e-01 -5.350931e-01 -4.196254e-01 -1.604225e-01 -5.222574e-01 9.829785e-01 6.496183e-01 -2.629930e-01 -1.152789e-01 -4.835694e-01 -4.565882e-01 -1.067307e-01 -4.423364e-01 1.505406e-02 -1.283165e-01 -8.105873e-02 5.358844e-02 -6.355806e-02 3.536651e-01
<VARIANCE> 39
 4.414830e+01 1.878195e+01 1.989183e+01 2.182197e+01 1.959819e+01 2.274267e+01 2.135108e+01 2.033197e+01 1.923251e+01 1.776624e+01 1.650584e+01 1.424968e+01 3.906144e+01 6.239865e+00 3.397469e+00 4.543111e+00 5.209301e+00 4.458430e+00 5.248599e+00 5.253536e+00 3.958394e+00 4.015497e+00 3.127608e+00 3.369212e+00 2.601109e+00 4.872024e+00 9.455893e-01 5.239105e-01 5.415881e-01 6.574502e-01 6.356810e-01 7.091162e-01 7.734692e-01 6.749316e-01 6.651735e-01 5.961347e-01 5.160027e-01 4.409518e-01 6.322482e-01
<GCONST> 1.242477e+02
<TRANSP> 5
 0.000000e+00 1.000000e+00 0.000000e+00 0.000000e+00 0.000000e+00
 0.000000e+00 5.762308e-01 4.237692e-01 0.000000e+00 0.000000e+00
 0.000000e+00 0.000000e+00 8.256341e-01 1.743659e-01 0.000000e+00
 0.000000e+00 0.000000e+00 0.000000e+00 5.901907e-01 4.098093e-01
 0.000000e+00 0.000000e+00 0.000000e+00 0.000000e+00 0.000000e+00
<ENDHMM>
~h "g"
<BEGINHMM>
<NUMSTATES> 5
<STATE> 2
<MEAN> 39
 -7.187408e+00 -3.355133e-01 1.578118e+00 -1.525647e+00 -1.127115e+01 -1.148526e+01 -5.522069e+00 -3.307266e+00 -1.184589e+01 -4.705348e+00 -1.613958e+00 -3.846268e+00 4.555351e+01 -1.100510e+00 1.820488e+00 -5.520657e-01 1.680112e+00 2.350705e+00 9.458318e-01 -1.524234e-01 -9.070241e-01 8.132565e-01 -5.493980e-01 -7.723418e-01 -7.620866e-02 -3.169558e+00 -1.660862e-01 -1.070981e+00 -7.091667e-01 -7.286053e-01 3.034250e-01 3.450657e-01 -7.723855e-02 2.656626e-01 7.347749e-01 4.865488e-01 -7.122837e-02 1.743816e-01 1.183774e+00
<VARIANCE> 39
 2.211229e+01 3.813866e+01 4.168842e+01 4.443586e+01 5.622006e+01 5.273370e+01 5.223660e+01 8.004027e+01 5.236659e+01 5.649244e+01 6.195891e+01 3.723307e+01 4.732130e+01 2.501998e+00 6.964716e+00 4.676014e+00 5.783682e+00 6.368021e+00 5.822585e+00 6.706583e+00 7.980940e+00 6.231689e+00 6.051276e+00 4.995702e+00 3.433869e+00 6.678510e+00 3.391767e-01 1.058922e+00 7.104439e-01 9.027449e-01 9.513412e-01 9.965628e-01 1.107306e+00 1.149474e+00 1.010422e+00 1.088374e+00 8.828189e-01 6.798617e-01 1.241971e+00
<GCONST> 1.425054e+02
<STATE> 3
<MEAN> 39
 -1.243213e+01 3.968284e-01 -1.858255e+00 9.218605e-01 -2.845242e+00 -6.156700e+00 -5.884359e+00 -4.138439e+00 -6.346212e+00 -3.600339e+00 -3.603405e+00 -2.808847e+00 3.982450e+01 -7.839764e-01 -2.823150e+00 -2.466905e+00 -1.394756e+00 1.570948e+00 8.818197e-01 -1.182180e-01 5.922909e-01 1.633411e+00 1.278550e+00 -6.980374e-02 6.189733e-01 2.181845e+00 5.722053e-01 -8.686607e-01 -1.764291e-01 -1.044768e+00 -8.346418e-01 -4.818067e-01 -1.562528e-01 1.830050e-01 -1.774810e-01 3.997818e-01 2.889568e-01 8.157833e-02 1.836247e+00
<VARIANCE> 39
 3.541784e+01 3.892104e+01 3.750318e+01 2.881096e+01 3.997423e+01 4.689122e+01 3.941300e+01 4.224701e+01 3.893744e+01 3.107603e+01 2.715636e+01 2.038404e+01 4.569063e+01 3.406746e+00 7.495941e+00 6.166122e+00 5.865276e+00 7.236562e+00 7.023035e+00 6.692488e+00 7.916310e+00 5.994823e+00 5.148319e+00 4.215751e+00 3.378700e+00 8.341372e+00 6.096252e-01 1.206219e+00 9.736847e-01 1.008832e+00 9.601773e-01 1.054240e+00 1.042248e+00 1.112127e+00 8.632674e-01 9.066201e-01 8.617368e-01 5.118445e-01 1.086497e+00
<GCONST> 1.398690e+02
<STATE> 4
<MEAN> 39
 -1.122261e+01 -1.015444e+01 -9.268290e+00 -7.088190e+00 -2.659392e+00 -7.463862e+00 -7.039214e+00 -2.537278e+00 -3.532902e+00 1.203682e+00 -2.926008e+00 -1.048496e+00 5.387210e+01 1.408390e+00 -3.728696e-01 -1.317056e-02 -1.628817e+00 -9.424409e-01 -7.644070e-01 -1.161377e+00 -1.419765e-01 6.884544e-02 4.436498e-01 3.976398e-01 1.514051e-01 2.731386e+00 6.275886e-01 8.399842e-01 7.593396e-01 1.981200e-01 -6.656442e-01 -2.434602e-01 -2.061251e-01 -5.641971e-02 -4.822702e-01 -4.961683e-01 1.469588e-01 -1.912973e-01 -5.001532e-01
<VARIANCE> 39
 3.096176e+01 5.513633e+01 7.967490e+01 4.782130e+01 6.642612e+01 6.511752e+01 6.054239e+01 5.630071e+01 4.790253e+01 3.958990e+01 3.403874e+01 2.482718e+01 3.355208e+01 4.660234e+00 8.100842e+00 7.162463e+00 7.417120e+00 6.720757e+00 6.788708e+00 6.063011e+00 5.743582e+00 6.024684e+00 5.666459e+00 4.285202e+00 3.131672e+00 6.375189e+00 5.991653e-01 1.529586e+00 1.375392e+00 1.125055e+00 1.247265e+00 1.253005e+00 1.245829e+00 1.335732e+00 1.212329e+00 1.104887e+00 8.802226e-01 6.938709e-01 8.389755e-01
<GCONST> 1.455546e+02
<TRANSP> 5
 0.000000e+00 1.000000e+00 0.000000e+00 0.000000e+00 0.000000e+00
 0.000000e+00 5.566576e-01 4.433424e-01 0.000000e+00 0.000000e+00
 0.000000e+00 0.000000e+00 4.740199e-01 5.259801e-01 0.000000e+00
 0.000000e+00 0.000000e+00 0.000000e+00 6.426579e-01 3.573422e-01
 0.000000e+00 0.000000e+00 0.000000e+00 0.000000e+00 0.000000e+00
<ENDHMM>
~h "k"
<BEGINHMM>
<NUMSTATES> 5
<STATE> 2
<MEAN> 39
 -1.160364e+01 -4.041348e+00 -1.736417e+00 -3.269249e+00 -7.251264e+00 -9.981842e+00 -4.935154e+00 -4.425282e-01 -7.858377e+00 -1.495159e+00 -1.602109e+00 -1.743656e+00 4.661951e+01 -2.664890e+00 1.383387e+00 -4.200855e-01 2.034918e+00 2.276843e+00 2.378755e+00 1.003960e+00 -7.344964e-01 1.074342e+00 3.986882e-01 4.178231e-02 3.254716e-01 -5.231267e+00 -1.495102e-01 -7.277794e-01 -5.855010e-01 -5.707255e-01 8.250389e-02 4.646390e-01 6.677714e-02 2.611183e-01 6.381573e-01 1.436563e-01 -1.224043e-02 2.381067e-02 6.535646e-01
<VARIANCE> 39
 4.191874e+01 3.659927e+01 6.326306e+01 5.417694e+01 9.073672e+01 7.138654e+01 6.713136e+01 8.185077e+01 6.949831e+01 4.978356e+01 5.238892e+01 3.239175e+01 6.567761e+01 5.671453e+00 5.303879e+00 6.653261e+00 5.630979e+00 7.812348e+00 6.856791e+00 7.227904e+00 7.619239e+00 7.565003e+00 5.361513e+00 5.803690e+00 3.438991e+00 5.940050e+00 7.303958e-01 1.009589e+00 8.351402e-01 1.066944e+00 1.470794e+00 1.269705e+00 1.084413e+00 1.409753e+00 1.356112e+00 1.024125e+00 9.789920e-01 7.130028e-01 1.966960e+00
<GCONST> 1.490800e+02
<STATE> 3
<MEAN> 39
 -1.957304e+01 -3.391643e+00 -5.012961e+00 -4.099697e-01 -1.006132e+00 -1.046263e+00 -1.797496e+00 3.356162e-01 -1.094626e+00 7.515790e-01 -6.166258e-01 -3.800635e-01 3.425748e+01 -3.946243e-01 -1.543715e+00 -1.252031e+00 -9.784153e-01 1.764832e-01 7.168645e-01 3.433841e-01 1.491535e-01 5.847915e-01 5.731741e-01 -2.759859e-03 2.530853e-01 1.081222e+00 7.616401e-01 -5.720184e-01 -7.521779e-02 -9.011576e-01 -6.787611e-01 -9.427521e-01 -3.955578e-01 2.821430e-02 -4.823612e-01 -6.205910e-02 -1.575812e-01 -8.871281e-02 2.456827e+00
<VARIANCE> 39
 1.046610e+01 1.570500e+01 1.715387e+01 1.640855e+01 1.973375e+01 2.181791e+01 2.356494e+01 2.487296e+01 2.450152e+01 2.021888e+01 1.713848e+01 1.506219e+01 2.339018e+01 4.944280e+00 5.059956e+00 5.259002e+00 5.216133e+00 5.874018e+00 6.464888e+00 5.051894e+00 5.090081e+00 5.905149e+00 3.720915e+00 3.466422e+00 2.615691e+00 1.651428e+01 6.417282e-01 7.606690e-01 8.615028e-01 7.424367e-01 9.071980e-01 8.538045e-01 8.938841e-01 8.823250e-01 7.840092e-01 6.506418e-01 6.640908e-01 4.489687e-01 1.328959e+00
<GCONST> 1.280274e+02
<STATE> 4
<MEAN> 39
 -1.615467e+01 -1.038317e+01 -7.803903e+00 -9.240862e+00 -4.187045e+00 -4.874063e+00 -2.880108e+00 -2.524150e-01 -2.752008e+00 1.839056e+00 -2.334910e+00 -3.659949e-01 5.436503e+01 9.859505e-01 9.523948e-02 2.441922e-01 -9.368143e-01 -8.302812e-01 -7.079476e-01 -1.401150e-01 -1.370567e-01 -3.468311e-01 -3.836124e-01 -1.441193e-01 -2.100131e-01 2.333854e+00 2.575619e-01 4.569772e-01 3.407461e-01 2.605873e-01 -1.549026e-01 -4.524042e-02 -1.085117e-01 -7.215817e-03 -1.107915e-01 -2.727967e-01 7.955464e-02 -1.046446e-01 -5.128327e-01
<VARIANCE> 39
 2.925355e+01 3.909898e+01 7.097287e+01 4.574529e+01 5.472922e+01 4.792670e+01 5.027719e+01 4.492031e+01 3.968211e+01 3.399892e+01 2.914997e+01 2.244465e+01 5.055393e+01 5.375062e+00 4.901945e+00 4.422816e+00 5.323515e+00 4.463117e+00 4.775213e+00 4.516487e+00 4.376255e+00 4.699127e+00 3.950838e+00 3.370682e+00 2.666867e+00 1.057232e+01 7.607962e-01 1.234005e+00 1.001755e+00 9.875519e-01 9.147780e-01 9.428400e-01 9.590096e-01 8.813120e-01 9.055871e-01 7.601506e-01 6.710536e-01 5.426888e-01 1.748604e+00
<GCONST> 1.387474e+02
<TRANSP> 5
 0.000000e+00 1.000000e+00 0.000000e+00 0.000000e+00 0.000000e+00
 0.000000e+00 5.477821e-01 4.522179e-01 0.000000e+00 0.000000e+00
 0.000000e+00 0.000000e+00 6.218796e-01 3.781204e-01 0.000000e+00
 0.000000e+00 0.000000e+00 0.000000e+00 7.710988e-01 2.289012e-01
 0.000000e+00 0.000000e+00 0.000000e+00 0.000000e+00 0.000000e+00
<ENDHMM>
~h "l"
<BEGINHMM>
<NUMSTATES> 5
<STATE> 2
<MEAN> 39
 -1.199157e+00 -3.503042e+00 -1.079058e+01 -2.411919e+01 -8.478406e+00 1.465712e+00 -7.370796e+00 -7.380575e+00 -4.184482e+00 -1.043983e+00 -8.598518e-02 -2.199729e+00 5.898283e+01 5.515754e-01 5.264699e-01 -1.723221e-01 -1.028638e+00 6.311991e-03 5.313753e-01 -1.618439e-01 -4.406921e-01 -5.318267e-01 -8.244277e-02 3.817429e-01 2.390230e-01 -1.225195e-01 -2.740736e-01 -3.822659e-01 5.912623e-02 5.404669e-01 8.962597e-02 -3.014583e-01 -7.677942e-02 3.146690e-01 2.551569e-01 8.877036e-02 -1.398307e-01 -1.220251e-01 8.848047e-02
<VARIANCE> 39
 1.291376e+01 4.769465e+01 4.756931e+01 7.333236e+01 6.197222e+01 6.892531e+01 7.626311e+01 6.495522e+01 6.463714e+01 6.144915e+01 5.692969e+01 4.082327e+01 3.023132e+01 1.893099e+00 2.628154e+00 2.029848e+00 4.939960e+00 3.270071e+00 4.120299e+00 4.169229e+00 4.090940e+00 3.702889e+00 3.794710e+00 3.301081e+00 2.855484e+00 1.845049e+00 2.774494e-01 4.262311e-01 3.410862e-01 6.240078e-01 6.165696e-01 6.463191e-01 6.862345e-01 7.935612e-01 8.012148e-01 7.636935e-01 6.056996e-01 5.689116e-01 2.394183e-01
<GCONST> 1.292218e+02
<STATE> 3
<MEAN> 39
 -1.337024e+00 -5.785995e+00 -1.100491e+01 -2.335175e+01 -6.596624e+00 1.255392e+00 -1.007216e+01 -8.294224e+00 -3.581046e+00 2.081228e+00 1.260150e+00 -4.019057e+00 6.045478e+01 -3.438737e-01 -1.487615e+00 5.815681e-02 1.321231e+00 4.462717e-01 -9.962953e-01 -1.124484e+00 7.741681e-01 1.603727e+00 8.979720e-01 -8.562566e-01 -1.212011e+00 8.056184e-01 -3.792061e-01 -1.894359e-01 3.869866e-01 7.479498e-01 -2.383422e-01 -5.842369e-01 2.478148e-01 6.832044e-01 2.436227e-01 -4.284600e-01 -5.249170e-01 1.073000e-01 -1.053047e-01
<VARIANCE> 39
 1.081343e+01 3.462976e+01 4.919993e+01 6.121772e+01 5.134499e+01 6.832523e+01 7.602607e+01 5.738305e+01 5.892407e+01 5.796453e+01 6.104123e+01 4.290984e+01 2.630726e+01 1.026772e+00 3.488890e+00 2.346986e+00 4.896714e+00 3.387439e+00 5.077307e+00 4.811704e+00 4.791579e+00 5.062765e+00 4.292860e+00 3.861902e+00 3.447067e+00 2.428309e+00 3.343334e-01 3.915642e-01 4.017927e-01 6.728902e-01 7.472107e-01 7.194903e-01 7.521682e-01 8.297412e-01 8.154101e-01 8.059866e-01 6.262878e-01 6.569937e-01 2.660056e-01
<GCONST> 1.306232e+02
<STATE> 4
<MEAN> 39
 -3.046688e+00 -9.234374e+00 -8.396288e+00 -1.729469e+01 -7.568972e+00 -5.881002e+00 -1.241633e+01 -2.488146e+00 9.064583e-01 6.741458e-01 -4.314882e+00 -4.763710e+00 6.161100e+01 -8.457120e-01 -7.468138e-01 1.737718e+00 2.091271e+00 -1.270648e+00 -2.039362e+00 4.834851e-01 1.972309e+00 -1.435692e-01 -1.313121e+00 -8.215010e-01 6.884767e-01 7.839303e-02 -1.620212e-01 3.059358e-01 3.876284e-01 -5.453665e-02 -3.226348e-01 2.881858e-01 5.792880e-01 -2.022915e-01 -8.127982e-01 -2.873291e-01 4.345637e-01 3.556464e-01 -3.030761e-01
<VARIANCE> 39
 1.196410e+01 3.714241e+01 5.924465e+01 6.930380e+01 5.281238e+01 9.046027e+01 7.656858e+01 6.677174e+01 6.299031e+01 6.406914e+01 6.418844e+01 4.569047e+01 3.290552e+01 1.233713e+00 2.995537e+00 4.014711e+00 4.467784e+00 5.239925e+00 5.167498e+00 4.887461e+00 5.270889e+00 6.188706e+00 4.325571e+00 4.064912e+00 3.615242e+00 2.351026e+00 2.535629e-01 3.290682e-01 3.671342e-01 7.114465e-01 6.657388e-01 9.131265e-01 7.914768e-01 9.578519e-01 9.410535e-01 9.172485e-01 6.557705e-01 6.864716e-01 2.063047e-01
<GCONST> 1.333323e+02
<TRANSP> 5
 0.000000e+00 1.000000e+00 0.000000e+00 0.000000e+00 0.000000e+00
 0.000000e+00 7.122865e-01 2.877135e-01 0.000000e+00 0.000000e+00
 0.000000e+00 0.000000e+00 4.469843e-01 5.530157e-01 0.000000e+00
 0.000000e+00 0.000000e+00 0.000000e+00 4.652164e-01 5.347835e-01
 0.000000e+00 0.000000e+00 0.000000e+00 0.000000e+00 0.000000e+00
<ENDHMM>
~h "m"
<BEGINHMM>
<NUMSTATES> 5
<STATE> 2
<MEAN> 39
 -4.647390e+00 -3.357918e+00 -5.008796e+00 -4.654122e+00 -6.688726e+00 -7.308553e+00 -6.106111e+00 -8.286497e+00 -1.090220e+01 -2.040141e+00 -2.169888e+00 -5.887590e+00 5.081173e+01 4.563198e-01 1.319496e+00 1.009202e+00 1.649578e+00 3.508108e-02 -1.128767e+00 3.187042e-02 -2.172066e+00 -2.373304e+00 2.239716e-01 1.510772e-01 -8.168738e-01 -6.865551e-01 -2.258328e-01 -4.710114e-01 3.197891e-02 -4.091382e-01 -2.133206e-01 1.600669e-01 -1.303459e-01 5.531984e-01 5.213696e-01 -7.803773e-02 -7.384370e-02 1.982438e-01 5.291502e-01
<VARIANCE> 39
 2.171622e+01 3.023204e+01 3.401618e+01 4.979679e+01 4.666047e+01 5.886147e+01 6.260754e+01 6.133308e+01 6.612293e+01 5.326249e+01 6.853478e+01 4.433596e+01 3.712066e+01 5.013553e+00 2.904226e+00 3.667590e+00 4.133863e+00 4.975982e+00 4.429845e+00 6.114245e+00 5.240830e+00 5.769430e+00 4.926325e+00 5.095161e+00 3.858070e+00 5.099851e+00 3.858926e-01 3.944536e-01 6.114984e-01 5.979115e-01 6.326826e-01 6.625044e-01 7.794012e-01 7.901563e-01 9.423348e-01 6.895729e-01 7.338353e-01 5.530121e-01 3.487037e-01
<GCONST> 1.348530e+02
<STATE> 3
<MEAN> 39
 -4.113884e+00 -3.096255e+00 -3.073682e+00 -3.222601e+00 -7.672992e+00 -8.655568e+00 -7.140842e+00 -1.073007e+01 -1.345604e+01 -1.272778e+00 -2.366280e+00 -7.011768e+00 5.147055e+01 -3.064055e-02 -5.957590e-02 1.391098e-01 -5.355293e-02 -1.068378e-01 5.009659e-02 -8.952247e-02 3.825858e-02 1.498657e-01 -1.373842e-01 -1.136813e-01 6.996811e-02 2.263729e-01 -1.150898e-01 -4.331803e-01 -2.715729e-01 -6.511624e-01 -1.132083e-01 3.625195e-01 -2.373877e-02 7.676609e-01 8.144899e-01 -1.582742e-01 -7.317200e-02 3.041746e-01 3.640650e-01
<VARIANCE> 39
 8.503024e+00 2.339466e+01 3.107332e+01 4.937075e+01 5.053298e+01 7.036746e+01 6.525627e+01 6.675567e+01 6.197540e+01 6.173211e+01 8.417805e+01 5.474558e+01 2.055286e+01 1.183445e+00 1.809599e+00 1.439712e+00 1.986628e+00 2.091465e+00 2.019858e+00 2.451737e+00 2.607734e+00 3.122527e+00 2.384134e+00 2.371836e+00 2.001970e+00 2.232159e+00 3.238351e-01 2.983939e-01 5.017040e-01 5.132431e-01 5.851749e-01 5.691507e-01 6.690471e-01 7.358421e-01 8.610704e-01 6.794515e-01 7.069040e-01 5.961855e-01 2.368892e-01
<GCONST> 1.217046e+02
<STATE> 4
<MEAN> 39
 -4.393334e+00 -5.024567e+00 -4.669717e+00 -5.665601e+00 -7.912045e+00 -7.316522e+00 -7.361381e+00 -7.601131e+00 -9.309069e+00 -2.844915e+00 -2.660557e+00 -5.545493e+00 5.349081e+01 -2.396867e-01 -1.629951e+00 -3.910601e-01 -2.231021e+00 -9.186122e-01 9.866732e-01 -1.882997e-01 2.465312e+00 2.403380e+00 -6.294580e-01 -3.829390e-01 9.356450e-01 1.734553e+00 -2.643746e-01 -2.349731e-01 9.747633e-02 -4.200858e-01 -1.562877e-01 2.402270e-01 1.493368e-01 4.885306e-01 1.853547e-01 7.862029e-02 -1.501021e-03 1.478886e-01 1.786814e-01
<VARIANCE> 39
 1.592542e+01 3.134882e+01 3.467733e+01 5.175887e+01 4.681227e+01 6.132376e+01 5.633929e+01 6.157116e+01 7.153011e+01 4.993642e+01 6.452664e+01 4.207423e+01 3.995772e+01 2.586784e+00 3.346141e+00 5.614493e+00 5.085581e+00 5.764782e+00 4.935213e+00 5.579716e+00 5.279336e+00 6.436244e+00 5.090431e+00 5.310337e+00 4.055845e+00 4.009911e+00 3.886748e-01 4.484218e-01 6.140785e-01 6.632838e-01 6.778445e-01 6.785860e-01 7.390944e-01 8.539665e-01 1.165591e+00 6.903926e-01 6.896046e-01 5.425203e-01 4.040894e-01
<GCONST> 1.354725e+02
<TRANSP> 5
 0.000000e+00 1.000000e+00 0.000000e+00 0.000000e+00 0.000000e+00
 0.000000e+00 4.108523e-01 5.891477e-01 0.000000e+00 0.000000e+00
 0.000000e+00 0.000000e+00 6.566890e-01 3.433110e-01 0.000000e+00
 0.000000e+00 0.000000e+00 0.000000e+00 4.176110e-01 5.823891e-01
 0.000000e+00 0.000000e+00 0.000000e+00 0.000000e+00 0.000000e+00
<ENDHMM>
~h "n"
<BEGINHMM>
<NUMSTATES> 5
<STATE> 2
<MEAN> 39
 -4.304492e+00 -6.657708e+00 -3.238980e+00 -8.187819e+00 -1.132420e+01 -7.914215e+00 -6.373370e+00 -3.608563e+00 -7.711354e+00 -2.721932e+00 -5.261983e+00 -4.576591e+00 5.511411e+01 1.732153e-01 1.848775e+00 1.067491e-01 1.755962e+00 1.127197e-01 -6.783533e-01 1.304892e+00 -3.035049e+00 -1.465575e+00 1.244753e+00 -7.897102e-01 -2.685935e-01 -2.022010e+00 -1.842670e-01 -4.250107e-02 4.210901e-02 -1.609461e-01 -4.573925e-02 1.537467e-01 5.002437e-02 4.101589e-02 1.200587e-01 -8.365216e-03 4.622545e-02 1.158885e-01 1.361595e-01
<VARIANCE> 39
 1.148400e+01 3.590714e+01 4.484989e+01 5.897317e+01 5.355645e+01 5.476197e+01 5.694868e+01 7.997068e+01 7.903049e+01 6.048080e+01 6.194751e+01 4.838074e+01 3.131702e+01 1.533381e+00 2.635356e+00 4.499503e+00 3.747038e+00 4.917953e+00 5.246616e+00 5.301694e+00 6.717525e+00 6.367054e+00 4.811673e+00 4.335114e+00 3.727052e+00 2.185884e+00 2.154947e-01 3.127959e-01 4.072102e-01 4.600055e-01 5.764884e-01 5.423092e-01 6.259006e-01 9.402717e-01 7.451094e-01 6.328370e-01 5.545192e-01 4.740667e-01 2.667649e-01
<GCONST> 1.304659e+02
<STATE> 3
<MEAN> 39
 -4.226555e+00 -2.289117e+00 -2.622072e+00 -5.071410e+00 -1.218041e+01 -8.833518e+00 -2.517524e+00 -1.099358e+01 -1.101012e+01 3.191598e-01 -7.154673e+00 -4.348498e+00 5.110683e+01 -2.000491e-01 8.891095e-01 1.527431e-01 5.613747e-01 1.879131e-01 7.287090e-03 2.666137e-01 -8.681287e-01 -3.494022e-01 9.985096e-02 -1.979351e-01 3.634772e-02 -8.816934e-01 -3.145783e-01 -4.948178e-01 -2.189126e-02 -4.875642e-01 2.241872e-01 2.606137e-01 -4.880176e-01 1.065919e+00 5.649058e-01 -4.637146e-01 2.889246e-01 1.178965e-01 4.578457e-01
<VARIANCE> 39
 9.078227e+00 2.995797e+01 2.999215e+01 5.225349e+01 4.707916e+01 5.134731e+01 5.608893e+01 7.430987e+01 6.680246e+01 6.255213e+01 6.647921e+01 5.369056e+01 2.438796e+01 9.739929e-01 2.183754e+00 1.927771e+00 2.305409e+00 2.593667e+00 2.636503e+00 3.204413e+00 4.988394e+00 3.550153e+00 3.054941e+00 2.532996e+00 2.160788e+00 1.853294e+00 2.995542e-01 4.585024e-01 5.503315e-01 6.026054e-01 7.270258e-01 7.239365e-01 7.854080e-01 1.033710e+00 1.007356e+00 7.758676e-01 7.158950e-01 6.092027e-01 3.552983e-01
<GCONST> 1.260683e+02
<STATE> 4
<MEAN> 39
 -6.350845e+00 -3.625286e+00 -3.338719e+00 -6.121664e+00 -1.003859e+01 -7.343230e+00 -4.927531e+00 -7.106920e+00 -8.098980e+00 -1.735847e+00 -6.387577e+00 -4.052889e+00 5.078101e+01 -9.920154e-01 -6.642311e-01 -3.144203e-01 -8.796376e-01 8.311873e-01 7.885546e-01 -7.110152e-01 1.665544e+00 1.122628e+00 -6.307500e-01 5.905861e-01 2.377642e-01 4.974617e-01 -2.464543e-01 -4.258647e-01 -1.854011e-01 -4.528765e-01 3.607710e-02 2.361502e-01 -3.289746e-02 6.096807e-01 3.362965e-01 -5.332273e-02 2.323806e-01 1.372558e-01 4.879480e-01
<VARIANCE> 39
 2.418301e+01 5.156876e+01 3.968758e+01 5.801152e+01 5.220822e+01 5.188105e+01 5.692509e+01 7.843098e+01 7.182192e+01 5.797648e+01 5.510853e+01 4.650498e+01 5.397613e+01 3.849041e+00 4.418470e+00 4.147003e+00 5.080664e+00 5.228801e+00 4.876338e+00 5.716666e+00 7.446026e+00 6.408735e+00 5.088481e+00 4.609365e+00 3.827382e+00 5.406894e+00 6.182387e-01 8.582361e-01 6.369652e-01 8.013839e-01 8.821766e-01 8.427462e-01 1.001552e+00 1.472456e+00 1.273570e+00 9.290739e-01 8.000357e-01 6.639297e-01 7.840400e-01
<GCONST> 1.420190e+02
<TRANSP> 5
 0.000000e+00 1.000000e+00 0.000000e+00 0.000000e+00 0.000000e+00
 0.000000e+00 3.405109e-01 6.594891e-01 0.000000e+00 0.000000e+00
 0.000000e+00 0.000000e+00 5.713772e-01 4.286228e-01 0.000000e+00
 0.000000e+00 0.000000e+00 0.000000e+00 4.554400e-01 5.445600e-01
 0.000000e+00 0.000000e+00 0.000000e+00 0.000000e+00 0.000000e+00
<ENDHMM>
~h "p"
<BEGINHMM>
<NUMSTATES> 5
<STATE> 2
<MEAN> 39
 -1.107842e+01 9.124975e-01 -3.786137e+00 -2.824705e+00 -2.899660e+00 -2.707994e+00 -5.073484e+00 -5.120018e+00 -5.871386e+00 -2.728811e+00 -2.821877e+00 -2.972894e+00 3.954591e+01 -3.352995e+00 9.210516e-01 3.346529e-01 2.170033e+00 1.502742e+00 1.419001e+00 1.577444e+00 7.310607e-01 8.771917e-01 2.548742e-01 8.798812e-02 5.262489e-01 -4.664525e+00 -1.601822e-01 -1.032543e+00 -2.871210e-01 -6.785643e-01 -4.129298e-01 -1.687625e-01 3.688787e-03 5.335039e-01 4.814994e-01 3.979006e-01 2.381064e-01 1.681065e-01 1.295147e+00
<VARIANCE> 39
 4.240788e+01 2.250280e+01 2.519458e+01 3.819524e+01 2.510553e+01 2.751724e+01 3.121251e+01 3.319054e+01 3.680927e+01 3.080283e+01 2.988447e+01 2.313737e+01 4.300070e+01 5.228510e+00 5.874023e+00 5.348054e+00 6.858375e+00 4.563516e+00 5.294717e+00 4.919091e+00 5.239736e+00 5.704676e+00 4.838086e+00 4.460829e+00 3.284452e+00 8.511332e+00 9.421173e-01 7.385216e-01 7.480507e-01 1.031251e+00 8.101496e-01 7.687693e-01 8.120678e-01 8.554751e-01 8.651941e-01 7.697778e-01 7.038586e-01 5.619004e-01 1.416803e+00
<GCONST> 1.353810e+02
<STATE> 3
<MEAN> 39
 -1.953405e+01 -2.126384e+00 -5.137800e+00 -1.102042e+00 -1.424293e+00 2.571931e-01 -1.049184e+00 3.380612e-02 -3.261058e-01 9.877953e-01 3.593419e-02 -1.133621e-02 3.254320e+01 -3.160878e-01 -1.097831e+00 -4.911142e-01 -5.222229e-01 -1.774896e-01 -1.655652e-01 2.695032e-01 5.681967e-01 7.241760e-01 4.522976e-01 3.425854e-01 3.311768e-01 1.711588e+00 8.539315e-01 -3.311000e-01 -5.829946e-02 -6.102638e-01 -2.996336e-01 -4.792981e-01 -3.784201e-01 -2.247510e-01 -2.361569e-01 -1.903665e-01 -1.642490e-01 -1.773714e-01 2.026238e+00
<VARIANCE> 39
 4.266777e+00 5.803596e+00 6.353796e+00 8.665871e+00 9.416298e+00 1.127225e+01 1.189412e+01 1.444076e+01 1.393712e+01 1.394448e+01 1.229633e+01 1.174625e+01 1.210286e+01 2.874006e+00 2.052884e+00 1.648784e+00 2.515459e+00 1.825676e+00 2.544287e+00 2.448877e+00 2.923872e+00 2.980122e+00 2.461097e+00 2.155770e+00 1.897378e+00 1.353480e+01 5.890597e-01 3.674996e-01 4.153495e-01 5.316272e-01 4.498382e-01 5.374967e-01 5.224360e-01 5.002000e-01 5.125778e-01 4.702296e-01 4.417120e-01 3.665221e-01 9.938071e-01
<GCONST> 1.050978e+02
<STATE> 4
<MEAN> 39
 -1.476103e+01 -8.735358e+00 -7.730749e+00 -7.328518e+00 -3.081784e+00 -3.032447e+00 -1.843985e+00 -3.529017e-01 -2.595732e-01 3.411966e-01 -1.188034e+00 -7.410165e-01 5.326773e+01 1.961637e+00 -8.348634e-01 -5.909542e-01 -1.360578e+00 -6.263735e-01 -5.930021e-01 -6.917653e-01 -2.792666e-01 -4.407667e-01 -4.331167e-01 -4.789008e-01 -3.442668e-01 2.909607e+00 4.466998e-01 3.179289e-01 1.486387e-02 -3.621428e-02 -2.105001e-01 -4.898030e-03 -3.319577e-01 -1.427877e-01 -3.044076e-01 -1.700135e-01 -8.794741e-02 -1.053854e-01 -6.626149e-01
<VARIANCE> 39
 2.169726e+01 2.522343e+01 2.810057e+01 3.412814e+01 2.845789e+01 3.160672e+01 3.215296e+01 2.988284e+01 2.847712e+01 2.478000e+01 2.307380e+01 1.851785e+01 4.664032e+01 4.678243e+00 3.742593e+00 3.390609e+00 4.212579e+00 3.997267e+00 4.504482e+00 4.705181e+00 4.102558e+00 4.142076e+00 3.181334e+00 3.083731e+00 2.358231e+00 1.063459e+01 5.934411e-01 6.027702e-01 5.239202e-01 6.666928e-01 6.958216e-01 7.236685e-01 7.713758e-01 7.960832e-01 8.000857e-01 6.551754e-01 6.130669e-01 4.781224e-01 1.486196e+00
<GCONST> 1.285457e+02
<TRANSP> 5
 0.000000e+00 1.000000e+00 0.000000e+00 0.000000e+00 0.000000e+00
 0.000000e+00 5.258304e-01 4.741696e-01 0.000000e+00 0.000000e+00
 0.000000e+00 0.000000e+00 7.051131e-01 2.948869e-01 0.000000e+00
 0.000000e+00 0.000000e+00 0.000000e+00 7.552711e-01 2.447289e-01
 0.000000e+00 0.000000e+00 0.000000e+00 0.000000e+00 0.000000e+00
<ENDHMM>
~h "r"
<BEGINHMM>
<NUMSTATES> 5
<STATE> 2
<MEAN> 39
 2.190341e+00 -9.707358e+00 -1.470138e+01 -6.817472e+00 -3.966953e+00 -1.066961e+01 -1.631164e+01 -3.580851e-01 -1.621156e+00 -3.128890e+00 -1.229914e+00 3.847896e-01 5.643247e+01 1.121173e+00 -1.432837e-01 -9.168966e-01 1.107138e-01 3.258016e-01 -3.767395e-01 -1.228041e+00 1.562044e-01 5.311589e-01 -7.703302e-02 -1.902702e-01 8.728248e-02 2.140376e-01 -4.646260e-01 -2.184481e-01 4.985204e-01 6.999999e-02 -3.846000e-01 -5.799543e-03 4.263837e-01 2.789099e-01 -5.631630e-02 -1.821940e-02 7.493478e-03 -7.370915e-02 5.375744e-02
<VARIANCE> 39
 1.896055e+01 3.451018e+01 6.593788e+01 4.350021e+01 5.493729e+01 7.312567e+01 8.571984e+01 9.223861e+01 7.919009e+01 4.360103e+01 3.981614e+01 3.553130e+01 2.922258e+01 3.778923e+00 2.571661e+00 3.559524e+00 2.702872e+00 3.814268e+00 4.947309e+00 6.164940e+00 4.944922e+00 4.281495e+00 3.605714e+00 2.832662e+00 2.385126e+00 2.106482e+00 4.156490e-01 4.241586e-01 4.298527e-01 4.081258e-01 4.837738e-01 6.440635e-01 8.625958e-01 7.974405e-01 6.165127e-01 5.352693e-01 4.595645e-01 4.141266e-01 2.943889e-01
<GCONST> 1.294509e+02
<STATE> 3
<MEAN> 39
 2.603059e+00 -1.438254e+01 -1.376716e+01 -5.317524e+00 -6.072488e+00 -1.413536e+01 -1.909794e+01 5.662860e+00 8.922614e-01 -4.230875e+00 -1.994643e+00 -3.365240e-04 5.982796e+01 -4.440407e-01 -5.494417e-01 1.490385e+00 5.258886e-01 -1.349557e+00 -7.030413e-01 8.445570e-01 1.002446e+00 -4.006379e-01 -6.213803e-01 -8.273758e-02 -5.931314e-02 1.985590e-01 -6.108099e-01 2.806621e-01 6.585860e-01 -1.749802e-01 -2.722538e-01 4.658523e-01 9.546949e-01 -3.607176e-01 -5.452835e-01 6.943387e-02 1.441301e-01 -1.193409e-01 -2.569459e-01
<VARIANCE> 39
 1.175760e+01 2.541953e+01 7.128093e+01 4.722389e+01 6.771045e+01 7.900799e+01 1.141904e+02 8.610290e+01 9.119469e+01 5.296040e+01 4.402875e+01 3.558411e+01 2.078992e+01 1.489130e+00 3.138255e+00 3.053647e+00 2.808911e+00 3.991624e+00 4.269619e+00 5.275880e+00 6.076904e+00 4.195001e+00 3.412497e+00 3.284695e+00 2.433091e+00 2.962152e+00 3.945765e-01 2.708676e-01 3.801859e-01 4.288991e-01 5.571347e-01 6.135502e-01 8.832111e-01 6.859742e-01 6.373275e-01 5.649323e-01 4.478409e-01 4.037041e-01 2.342751e-01
<GCONST> 1.281633e+02
<STATE> 4
<MEAN> 39
 -7.506602e-01 -1.369166e+01 -8.962426e+00 -4.386457e+00 -8.897245e+00 -1.453303e+01 -1.178988e+01 5.880270e+00 -2.931648e+00 -5.194677e+00 -2.462307e+00 -3.498589e-01 5.779180e+01 -1.544632e+00 6.941592e-01 2.236655e+00 -1.655144e-02 -9.836658e-01 9.336868e-01 2.149176e+00 -9.294761e-01 -1.262043e+00 1.078015e-01 7.702400e-02 -4.329747e-01 -9.597173e-01 -4.005364e-01 3.848598e-01 6.465912e-02 -3.359391e-01 2.493253e-01 5.980812e-01 1.497492e-01 -5.392011e-01 -2.965659e-03 3.036349e-01 1.210517e-03 -1.657278e-01 -2.698000e-01
<VARIANCE> 39
 1.895009e+01 3.644577e+01 7.048754e+01 5.978181e+01 8.398486e+01 9.661469e+01 1.089354e+02 8.102335e+01 9.932631e+01 6.045774e+01 5.290741e+01 3.783097e+01 4.955587e+01 2.131143e+00 4.454034e+00 3.772857e+00 4.838395e+00 5.640512e+00 4.509940e+00 6.094824e+00 5.907601e+00 4.922781e+00 3.982787e+00 3.851736e+00 3.012084e+00 5.583921e+00 4.464231e-01 4.549348e-01 4.333742e-01 5.730929e-01 7.368422e-01 9.988766e-01 1.036426e+00 9.195528e-01 7.660974e-01 6.711758e-01 6.256187e-01 5.094295e-01 3.759122e-01
<GCONST> 1.378461e+02
<TRANSP> 5
 0.000000e+00 1.000000e+00 0.000000e+00 0.000000e+00 0.000000e+00
 0.000000e+00 6.039438e-01 3.960562e-01 0.000000e+00 0.000000e+00
 0.000000e+00 0.000000e+00 4.859662e-01 5.140338e-01 0.000000e+00
 0.000000e+00 0.000000e+00 0.000000e+00 3.662955e-01 6.337045e-01
 0.000000e+00 0.000000e+00 0.000000e+00 0.000000e+00 0.000000e+00
<ENDHMM>
~h "s"
<BEGINHMM>
<NUMSTATES> 5
<STATE> 2
<MEAN> 39
 -2.180265e+01 -5.368479e-02 -5.324699e+00 -8.141367e+00 -2.517416e+00 -7.447121e+00 -2.155703e+00 -6.998681e-02 -2.295467e+00 -1.763808e+00 -2.956734e+00 -6.075400e-01 5.808836e+01 -4.623272e+00 1.465973e+00 -9.380705e-01 2.997116e-01 1.883522e+00 9.972676e-01 1.470207e+00 8.624341e-01 4.786981e-01 2.734770e-01 8.265022e-01 6.969614e-01 6.705367e-02 4.930250e-01 -5.043974e-01 -8.086238e-02 -1.568642e-01 -3.647546e-01 7.436737e-02 -3.412593e-01 2.178819e-02 -7.785822e-02 8.769289e-02 1.286279e-02 -7.687085e-02 -6.491401e-03
<VARIANCE> 39
 7.163936e+01 2.840498e+01 4.457064e+01 3.332656e+01 4.464388e+01 4.109449e+01 4.136238e+01 3.977715e+01 3.282507e+01 3.041685e+01 2.612365e+01 2.073856e+01 2.358849e+01 4.188122e+00 4.085914e+00 4.597834e+00 5.000164e+00 4.405001e+00 4.880109e+00 4.879760e+00 4.294859e+00 4.245208e+00 3.998435e+00 3.884743e+00 2.864730e+00 2.083925e+00 1.259843e+00 5.818277e-01 6.329998e-01 6.694242e-01 7.300630e-01 7.893759e-01 7.916616e-01 7.597192e-01 6.197165e-01 6.568205e-01 6.007789e-01 4.847563e-01 4.108631e-01
<GCONST> 1.306909e+02
<STATE> 3
<MEAN> 39
 -3.018500e+01 1.503271e+00 -9.406526e+00 -7.755773e+00 -7.800370e-02 -5.121367e+00 -1.665700e-01 1.512740e+00 -1.539831e+00 -3.013281e-01 -1.160522e+00 7.534809e-01 5.823137e+01 -1.184613e-01 -7.625907e-02 -3.615903e-02 -1.136853e-01 2.851003e-02 1.752194e-02 -5.227801e-02 4.880108e-02 5.742025e-02 6.375763e-02 7.267403e-04 -1.272304e-04 -1.092979e-02 6.595805e-01 -2.290033e-01 2.703431e-01 -3.303485e-02 -2.070755e-01 -1.555358e-01 -2.100936e-01 -1.296824e-01 -3.770944e-02 -6.662807e-02 -1.137418e-01 -1.088566e-01 -1.566919e-01
<VARIANCE> 39
 8.332942e+00 2.080728e+01 3.027332e+01 3.810822e+01 3.472745e+01 3.152163e+01 2.841375e+01 2.519206e+01 1.959764e+01 1.706680e+01 1.624660e+01 1.323186e+01 1.670241e+01 1.181674e+00 1.309324e+00 1.280656e+00 1.349799e+00 1.508555e+00 1.703853e+00 1.599044e+00 1.625530e+00 1.548072e+00 1.501081e+00 1.355170e+00 1.232157e+00 7.159671e-01 4.016539e-01 2.438720e-01 2.819852e-01 3.235905e-01 3.509304e-01 3.954400e-01 3.882184e-01 3.713110e-01 3.593813e-01 3.423460e-01 3.179463e-01 2.758680e-01 1.930677e-01
<GCONST> 1.005555e+02
<STATE> 4
<MEAN> 39
 -2.545874e+01 -1.824820e+00 -5.989474e+00 -9.095781e+00 -1.036241e+00 -5.919558e+00 -2.427387e+00 1.320289e+00 -1.037920e+00 -6.026509e-01 -1.929594e+00 -1.992319e-01 5.589592e+01 3.310897e+00 -1.167191e+00 1.023457e+00 1.309942e-01 -1.140938e+00 -2.073976e-01 -1.269256e+00 -7.483916e-01 -1.679121e-01 -8.327617e-02 -3.354669e-01 -5.511677e-01 -1.345794e+00 6.717753e-01 -1.787975e-01 -2.046639e-02 8.463782e-02 -3.479580e-01 6.339899e-02 -2.198652e-01 -1.698336e-01 -1.533873e-01 2.891612e-02 4.000836e-03 -9.315421e-02 -2.054274e-01
<VARIANCE> 39
 3.935135e+01 2.848434e+01 3.793255e+01 3.298484e+01 3.990387e+01 4.080434e+01 4.009811e+01 3.364045e+01 2.815818e+01 2.378367e+01 2.185981e+01 1.864375e+01 4.110053e+01 5.644544e+00 2.838452e+00 3.761427e+00 4.635713e+00 4.669744e+00 5.494958e+00 4.973978e+00 3.880111e+00 3.711109e+00 2.948394e+00 3.151198e+00 2.419775e+00 6.202833e+00 7.424105e-01 5.474506e-01 6.037579e-01 6.895090e-01 7.040015e-01 8.152680e-01 9.353863e-01 7.008680e-01 6.458955e-01 5.700024e-01 5.766469e-01 4.467609e-01 1.023924e+00
<GCONST> 1.296669e+02
<TRANSP> 5
 0.000000e+00 1.000000e+00 0.000000e+00 0.000000e+00 0.000000e+00
 0.000000e+00 6.406324e-01 3.593676e-01 0.000000e+00 0.000000e+00
 0.000000e+00 0.000000e+00 8.289368e-01 1.710633e-01 0.000000e+00
 0.000000e+00 0.000000e+00 0.000000e+00 6.557032e-01 3.442968e-01
 0.000000e+00 0.000000e+00 0.000000e+00 0.000000e+00 0.000000e+00
<ENDHMM>
~h "t"
<BEGINHMM>
<NUMSTATES> 5
<STATE> 2
<MEAN> 39
 -1.133564e+01 -3.597059e+00 -2.624275e+00 -5.347631e+00 -8.639579e+00 -7.494130e+00 -6.770818e+00 -3.598131e+00 -3.703932e+00 -1.880634e+00 -3.793489e+00 -2.639660e+00 4.695291e+01 -1.683640e+00 9.074717e-01 -5.593846e-02 1.496721e+00 1.515075e+00 1.033708e+00 8.382234e-01 -3.419773e-02 3.297199e-01 4.197262e-02 2.757133e-01 2.930382e-01 -3.099567e+00 -4.987876e-02 -5.616782e-01 -2.290888e-01 -5.381584e-01 -4.159938e-02 2.230500e-01 1.446069e-01 3.815577e-01 5.861003e-02 1.205160e-01 2.038228e-01 9.922078e-02 7.892948e-01
<VARIANCE> 39
 6.532473e+01 5.325925e+01 6.064814e+01 6.110474e+01 6.720245e+01 5.302742e+01 5.470173e+01 5.819103e+01 6.615201e+01 5.017018e+01 4.465147e+01 3.780510e+01 8.710110e+01 5.682033e+00 5.884981e+00 5.408604e+00 6.942963e+00 6.956006e+00 6.818757e+00 6.272561e+00 6.954110e+00 6.449083e+00 5.033450e+00 5.226937e+00 3.857712e+00 1.030067e+01 5.986601e-01 9.000309e-01 7.213850e-01 1.155204e+00 1.178360e+00 9.911200e-01 9.852198e-01 1.087690e+00 1.047744e+00 9.651607e-01 8.709943e-01 6.701273e-01 1.690179e+00
<GCONST> 1.473070e+02
<STATE> 3
<MEAN> 39
 -1.770525e+01 -3.837273e+00 -4.277629e+00 -3.168443e+00 -3.404845e+00 -1.968667e+00 -2.786107e+00 -9.570687e-01 -1.501144e+00 -1.536106e-01 -1.261044e+00 -9.060328e-01 3.953270e+01 -5.291924e-01 -1.088072e+00 -4.191158e-01 -8.831477e-01 4.084054e-03 2.293258e-01 4.008790e-01 5.307558e-01 2.974049e-01 2.458192e-01 4.492918e-01 4.506409e-01 1.374942e+00 4.004678e-01 -2.197076e-01 3.904154e-02 -7.111226e-01 -5.829082e-01 -5.731534e-01 -2.544099e-01 -5.852324e-04 -2.058547e-01 -1.142418e-01 -1.240092e-01 -3.412788e-02 1.713776e+00
<VARIANCE> 39
 4.779081e+01 3.391151e+01 2.870677e+01 3.411433e+01 3.807884e+01 3.375826e+01 3.251144e+01 2.903873e+01 2.936760e+01 2.597767e+01 2.277904e+01 1.934080e+01 1.046286e+02 4.286325e+00 4.008863e+00 3.640929e+00 5.695248e+00 4.290949e+00 4.488245e+00 4.071921e+00 4.509909e+00 4.159508e+00 3.486861e+00 3.186831e+00 2.597528e+00 1.420826e+01 6.657934e-01 7.603963e-01 7.095037e-01 8.907160e-01 8.964065e-01 8.391045e-01 7.636052e-01 8.450397e-01 7.519896e-01 6.628335e-01 6.414208e-01 4.866069e-01 1.967330e+00
<GCONST> 1.334790e+02
<STATE> 4
<MEAN> 39
 -1.802431e+01 -7.590050e+00 -4.554257e+00 -9.454236e+00 -6.620227e+00 -6.038424e+00 -2.299468e+00 7.199690e-02 -1.960580e+00 -8.950593e-01 -1.514045e+00 1.352520e-01 5.563980e+01 1.279747e+00 -3.139506e-01 2.415430e-01 -4.611238e-01 -9.083355e-01 -1.001427e+00 -4.993397e-01 1.447168e-01 -3.351696e-01 -3.658472e-01 -3.981942e-01 -1.459926e-01 1.851565e+00 6.348262e-01 9.325261e-02 9.093844e-02 2.484545e-01 -1.259345e-01 8.534688e-03 -3.321107e-01 -1.039682e-01 -1.426909e-01 -4.226629e-02 -1.018411e-01 -2.056325e-01 -5.757928e-01
<VARIANCE> 39
 6.117649e+01 3.912914e+01 4.127085e+01 4.215028e+01 4.391448e+01 3.867890e+01 4.599001e+01 3.769382e+01 3.459009e+01 3.004324e+01 2.778162e+01 2.306554e+01 6.663848e+01 6.849153e+00 3.111958e+00 3.739180e+00 5.195154e+00 4.482812e+00 4.647266e+00 5.051392e+00 4.274824e+00 3.956536e+00 3.427751e+00 3.416575e+00 2.717311e+00 1.126670e+01 7.830886e-01 7.633579e-01 7.307010e-01 1.032477e+00 8.198631e-01 8.493107e-01 8.835952e-01 8.303213e-01 7.413257e-01 6.702914e-01 6.820780e-01 5.356892e-01 1.734257e+00
<GCONST> 1.361916e+02
<TRANSP> 5
 0.000000e+00 1.000000e+00 0.000000e+00 0.000000e+00 0.000000e+00
 0.000000e+00 4.287112e-01 5.712888e-01 0.000000e+00 0.000000e+00
 0.000000e+00 0.000000e+00 5.144905e-01 4.855094e-01 0.000000e+00
 0.000000e+00 0.000000e+00 0.000000e+00 6.144836e-01 3.855164e-01
 0.000000e+00 0.000000e+00 0.000000e+00 0.000000e+00 0.000000e+00
<ENDHMM>
~h "v"
<BEGINHMM>
<NUMSTATES> 5
<STATE> 2
<MEAN> 39
 -3.180468e+00 -6.025014e+00 -8.033854e+00 -8.538124e+00 -7.011354e+00 -7.323211e+00 -1.136903e+01 -5.700660e+00 -3.630600e+00 -4.381138e-01 -9.928132e-01 -3.136658e+00 5.496743e+01 -1.835536e+00 2.351071e+00 -6.452164e-03 1.449534e+00 1.555269e+00 8.021584e-01 9.315914e-01 -1.175450e+00 -7.484519e-01 -5.517136e-01 -1.472448e-01 2.487656e-01 -2.282156e+00 -5.948023e-01 -1.695164e-01 3.538614e-01 -4.000811e-02 -1.677832e-01 1.042182e-01 3.618223e-01 4.640822e-01 8.112015e-02 -1.381131e-01 -2.590969e-01 4.379137e-03 2.091860e-01
<VARIANCE> 39
 2.677997e+01 2.175586e+01 3.555900e+01 3.866915e+01 2.521158e+01 4.437250e+01 4.067114e+01 3.559577e+01 3.471128e+01 3.547875e+01 4.112481e+01 2.993805e+01 2.666272e+01 2.927762e+00 2.562437e+00 3.471632e+00 4.068561e+00 3.477886e+00 4.080347e+00 5.100361e+00 5.210972e+00 4.176613e+00 3.752807e+00 3.583387e+00 2.830390e+00 2.254934e+00 3.897831e-01 3.407077e-01 3.426661e-01 4.095125e-01 4.543224e-01 4.510695e-01 5.438804e-01 5.262582e-01 5.117394e-01 4.930843e-01 4.605639e-01 4.286527e-01 2.697279e-01
<GCONST> 1.224328e+02
<STATE> 3
<MEAN> 39
 -8.781483e+00 -1.307209e+00 -5.927506e+00 -5.501578e+00 -4.685946e+00 -5.469991e+00 -8.442401e+00 -6.927707e+00 -6.074317e+00 -2.730993e+00 -2.998866e+00 -2.944430e+00 5.033034e+01 -2.374319e+00 9.345450e-01 5.838089e-01 1.108470e+00 8.856006e-01 6.643581e-01 1.150679e+00 2.401867e-01 -1.291166e-01 -5.187398e-01 -4.541687e-01 1.029675e-01 -1.083148e+00 3.444332e-01 -9.121326e-01 -8.230356e-02 -5.644022e-01 -5.165652e-01 -2.528932e-01 -1.315499e-01 5.758368e-01 3.828211e-01 2.562245e-01 8.126504e-02 2.010796e-02 8.795261e-01
<VARIANCE> 39
 3.270238e+01 1.917921e+01 2.748281e+01 2.955939e+01 2.092476e+01 3.177661e+01 2.869998e+01 2.630230e+01 2.636510e+01 2.691287e+01 2.873516e+01 2.223459e+01 3.523925e+01 4.008519e+00 2.175897e+00 2.435559e+00 3.113335e+00 2.452017e+00 3.325991e+00 3.343204e+00 3.108719e+00 2.660699e+00 2.757957e+00 2.622010e+00 1.996508e+00 2.223760e+00 5.080522e-01 4.049273e-01 5.646394e-01 5.538160e-01 5.487612e-01 5.982065e-01 7.742447e-01 7.069979e-01 6.326355e-01 5.812744e-01 5.087925e-01 4.367472e-01 4.484974e-01
<GCONST> 1.198438e+02
<STATE> 4
<MEAN> 39
 -1.393702e+01 -3.556794e+00 -6.280419e+00 -5.372126e+00 -4.404058e+00 -4.695968e+00 -5.296084e+00 -3.455752e+00 -3.657513e+00 -2.120144e+00 -2.943459e+00 -2.027669e+00 5.122372e+01 5.870249e-01 -9.772535e-01 -4.230147e-01 -8.906245e-01 -6.230724e-01 -4.724612e-01 -8.220856e-02 6.140262e-01 4.668811e-01 3.301938e-01 2.325063e-01 1.504913e-01 1.137655e+00 1.006947e+00 -4.172680e-01 -1.028206e-01 -5.308409e-01 -4.310598e-01 -2.756657e-01 -4.243062e-01 7.249179e-02 -2.182350e-03 1.135952e-01 9.847601e-02 -4.754431e-02 4.784490e-01
<VARIANCE> 39
 5.678712e+01 2.294942e+01 2.775495e+01 2.894072e+01 2.219905e+01 2.842883e+01 3.231657e+01 2.789371e+01 2.639692e+01 2.296266e+01 2.228608e+01 1.873201e+01 4.072132e+01 8.011432e+00 2.858128e+00 2.932199e+00 3.941974e+00 3.398177e+00 3.928879e+00 4.308501e+00 3.421695e+00 3.197122e+00 2.564794e+00 2.568050e+00 2.033607e+00 4.747879e+00 8.516641e-01 6.847755e-01 6.459973e-01 7.904567e-01 6.494259e-01 7.897886e-01 8.392134e-01 7.895741e-01 7.347376e-01 6.072826e-01 5.948680e-01 4.475118e-01 7.283766e-01
<GCONST> 1.263756e+02
<TRANSP> 5
 0.000000e+00 1.000000e+00 0.000000e+00 0.000000e+00 0.000000e+00
 0.000000e+00 3.629724e-01 6.370276e-01 0.000000e+00 0.000000e+00
 0.000000e+00 0.000000e+00 4.111415e-01 5.888585e-01 0.000000e+00
 0.000000e+00 0.000000e+00 0.000000e+00 5.933255e-01 4.066745e-01
 0.000000e+00 0.000000e+00 0.000000e+00 0.000000e+00 0.000000e+00
<ENDHMM>
~h "w"
<BEGINHMM>
<NUMSTATES> 5
<STATE> 2
<MEAN> 39
 -6.798362e+00 -5.537004e+00 -9.576015e+00 -9.939740e+00 -5.143908e+00 -2.239820e+00 -7.488556e+00 -5.054281e+00 -7.291499e+00 -6.491714e-01 -4.577337e-01 -1.918140e+00 4.968436e+01 2.652441e+00 1.976995e+00 -6.067553e-01 -2.097904e+00 -1.204236e+00 1.085206e+00 7.883601e-01 -6.727502e-01 -1.580017e+00 -8.674398e-01 1.079913e-01 2.786981e-01 -6.846339e-01 8.821825e-03 4.275217e-02 4.452481e-01 -3.988037e-01 -8.012921e-01 -2.783597e-01 1.526379e-01 4.650508e-01 8.444251e-02 -2.110433e-01 -1.585589e-01 -1.173077e-02 5.407728e-01
<VARIANCE> 39
 5.989333e+01 4.637633e+01 2.993589e+01 5.064001e+01 4.017120e+01 3.889398e+01 5.506076e+01 4.103678e+01 6.198994e+01 3.811117e+01 3.954097e+01 2.658160e+01 4.707262e+01 4.931476e+00 3.354661e+00 4.619856e+00 4.769988e+00 5.781563e+00 5.107929e+00 6.129666e+00 4.958183e+00 4.479156e+00 4.154019e+00 3.429808e+00 2.792772e+00 5.053085e+00 5.035752e-01 8.741046e-01 6.386125e-01 8.134619e-01 8.663044e-01 7.860014e-01 1.132297e+00 8.573576e-01 8.922076e-01 8.957761e-01 6.232962e-01 5.376878e-01 5.743853e-01
<GCONST> 1.363242e+02
<STATE> 3
<MEAN> 39
 2.166837e+00 1.567186e+00 -8.792705e+00 -1.986497e+01 -1.630350e+01 -2.256117e+00 -4.540612e+00 -2.735290e+00 -9.145802e+00 -4.843356e+00 -1.997747e+00 -2.437443e+00 5.133134e+01 7.702327e-01 -2.773806e-01 -2.070489e-01 -1.630414e+00 -1.107772e+00 5.121094e-01 1.560268e-01 2.584658e-01 1.986561e-01 7.167438e-02 2.673708e-01 1.047236e-01 1.046608e+00 -3.973736e-01 -6.961580e-01 -9.101982e-02 2.995731e-01 5.350541e-01 1.019304e-01 -2.676131e-01 -6.900093e-02 2.069617e-01 3.866022e-01 2.253668e-01 2.471194e-02 3.198802e-01
<VARIANCE> 39
 7.641810e+00 2.317091e+01 2.706027e+01 4.583136e+01 4.668405e+01 4.106430e+01 3.730774e+01 4.192277e+01 5.227186e+01 3.695964e+01 3.681070e+01 2.700627e+01 1.878741e+01 2.032152e+00 2.852785e+00 2.059261e+00 3.601790e+00 4.284892e+00 3.626644e+00 3.796865e+00 3.484593e+00 4.072335e+00 3.625767e+00 3.357909e+00 2.494481e+00 2.640985e+00 3.671322e-01 3.203527e-01 3.328058e-01 5.420641e-01 5.799984e-01 6.329970e-01 6.479948e-01 6.080053e-01 7.743116e-01 5.981443e-01 5.098824e-01 4.690431e-01 1.847828e-01
<GCONST> 1.214923e+02
<STATE> 4
<MEAN> 39
 1.798660e+00 -6.893097e+00 -1.118045e+01 -2.110604e+01 -1.193352e+01 1.448329e+00 -8.900948e+00 -5.006915e+00 -8.802584e+00 8.136019e-01 2.168871e+00 -1.828786e+00 5.846132e+01 -3.795922e-01 -2.232815e+00 -5.767159e-03 7.507402e-01 9.950439e-01 -6.645275e-01 -1.534907e+00 3.179464e-01 1.431828e+00 1.380856e+00 2.458769e-02 -7.354393e-01 1.798527e+00 -4.393403e-01 8.611616e-02 3.509876e-01 6.544046e-01 2.517886e-02 -6.421692e-01 2.072131e-01 4.858699e-01 4.561098e-01 -3.311692e-01 -5.796237e-01 -1.887555e-01 -3.005759e-01
<VARIANCE> 39
 8.279634e+00 3.159323e+01 4.240465e+01 7.270087e+01 6.512858e+01 7.209296e+01 8.232914e+01 6.235451e+01 6.896047e+01 8.449602e+01 7.633985e+01 4.143611e+01 1.977819e+01 8.196589e-01 1.634706e+00 2.686098e+00 4.385077e+00 3.924050e+00 6.475995e+00 5.385965e+00 5.093299e+00 4.522979e+00 4.550921e+00 4.985137e+00 3.395539e+00 1.143852e+00 3.186643e-01 3.378122e-01 3.963099e-01 6.048020e-01 8.829004e-01 7.496788e-01 1.019531e+00 8.414220e-01 9.518346e-01 1.122574e+00 7.501361e-01 7.291828e-01 1.768531e-01
<GCONST> 1.307905e+02
<TRANSP> 5
 0.000000e+00 1.000000e+00 0.000000e+00 0.000000e+00 0.000000e+00
 0.000000e+00 5.936133e-01 4.063867e-01 0.000000e+00 0.000000e+00
 0.000000e+00 0.000000e+00 7.448553e-01 2.551446e-01 0.000000e+00
 0.000000e+00 0.000000e+00 0.000000e+00 5.621359e-01 4.378642e-01
 0.000000e+00 0.000000e+00 0.000000e+00 0.000000e+00 0.000000e+00
<ENDHMM>
~h "y"
<BEGINHMM>
<NUMSTATES> 5
<STATE> 2
<MEAN> 39
 -1.137278e+01 -2.672444e+00 1.161424e+01 -1.165459e+01 -1.479032e+01 -7.045714e+00 -9.817910e+00 -5.238362e+00 -1.151653e+01 -4.141722e+00 -3.443656e+00 -2.653822e+00 5.529560e+01 5.814052e-01 4.562109e-02 1.622468e+00 -1.879989e-01 -1.332579e+00 -2.703250e-01 -3.953345e-01 -2.013756e-01 -1.220847e+00 -3.569453e-01 3.382696e-01 -1.417558e-01 4.542049e-01 2.384240e-01 -3.143631e-01 -7.380024e-01 6.604058e-02 2.732544e-01 -1.351025e-01 -4.073881e-02 2.992729e-01 3.361794e-01 1.636394e-01 1.022059e-01 3.058679e-02 3.092091e-02
<VARIANCE> 39
 2.635699e+01 4.182449e+01 3.684917e+01 7.310291e+01 4.862815e+01 4.931582e+01 4.293486e+01 5.713326e+01 4.316529e+01 4.822371e+01 5.176248e+01 2.943196e+01 3.200208e+01 5.070622e+00 3.570427e+00 4.494074e+00 3.675571e+00 5.841397e+00 6.941607e+00 4.364091e+00 4.367056e+00 4.700687e+00 4.349677e+00 2.859560e+00 2.232903e+00 3.109332e+00 4.957529e-01 3.574621e-01 5.140257e-01 7.302594e-01 9.835398e-01 9.286118e-01 7.821960e-01 8.578025e-01 7.435923e-01 6.987524e-01 4.832104e-01 4.300673e-01 3.373607e-01
<GCONST> 1.324485e+02
<STATE> 3
<MEAN> 39
 -8.645891e+00 -5.700424e+00 1.324846e+01 -1.128263e+01 -1.975083e+01 -8.364929e+00 -9.728405e+00 -4.769340e+00 -1.291139e+01 -3.293055e+00 -1.024709e+00 -2.358393e+00 5.804647e+01 6.754230e-01 -8.305409e-01 -5.999839e-01 5.163952e-01 -5.160849e-01 -1.072502e+00 1.964341e-01 6.692507e-01 -1.457905e-01 3.758664e-02 5.479764e-01 1.797487e-01 4.536062e-01 5.671513e-02 -6.684284e-02 -3.699026e-01 9.923919e-02 2.793109e-01 -1.485313e-01 -7.172306e-02 2.286206e-01 2.044435e-01 -6.250162e-02 -7.879374e-03 7.568927e-02 -6.444632e-02
<VARIANCE> 39
 1.198976e+01 3.401060e+01 3.773239e+01 8.099069e+01 3.518845e+01 4.831344e+01 4.870325e+01 5.629379e+01 4.471868e+01 6.780214e+01 5.416248e+01 3.023041e+01 1.923510e+01 1.416674e+00 9.993675e-01 1.403012e+00 1.297836e+00 1.454543e+00 2.684695e+00 2.455082e+00 2.515223e+00 1.722465e+00 1.814137e+00 1.374673e+00 1.191844e+00 5.070797e-01 1.159688e-01 1.295627e-01 2.363847e-01 1.991081e-01 3.803487e-01 3.074361e-01 3.587658e-01 2.823229e-01 3.549452e-01 2.992989e-01 2.344778e-01 2.041927e-01 8.644231e-02
<GCONST> 1.051062e+02
<STATE> 4
<MEAN> 39
 -3.410039e+00 -1.253317e+01 3.345848e+00 -5.038866e+00 -1.747123e+01 -1.795061e+01 -1.015949e+01 5.424535e+00 -9.673910e+00 -6.209122e+00 2.629828e+00 7.262150e-01 5.971022e+01 1.050746e+00 -6.345863e-01 -2.233786e+00 5.785580e-01 1.370730e+00 -1.075750e+00 -1.268661e+00 1.493894e+00 1.447611e+00 -5.235769e-01 -3.565772e-01 5.308315e-01 -5.135097e-03 -1.406854e-01 2.339236e-01 -1.295222e-01 -2.050665e-01 3.662229e-01 5.155007e-01 -1.600906e-01 -3.709195e-01 3.441624e-01 1.745954e-01 -3.203440e-01 -1.523271e-01 -1.780598e-01
<VARIANCE> 39
 1.443964e+01 2.699988e+01 6.451996e+01 5.163025e+01 4.614632e+01 6.110932e+01 7.748732e+01 6.224832e+01 7.036490e+01 6.042236e+01 3.841546e+01 3.306934e+01 1.861789e+01 1.261359e+00 1.246217e+00 1.852279e+00 1.478029e+00 1.971179e+00 2.690917e+00 3.203626e+00 2.959410e+00 2.912969e+00 2.390557e+00 1.973387e+00 1.605675e+00 5.561987e-01 1.576173e-01 1.447741e-01 2.934808e-01 2.523227e-01 4.031945e-01 4.286626e-01 4.202883e-01 3.882294e-01 4.527884e-01 4.137369e-01 2.947181e-01 2.641925e-01 7.518762e-02
<GCONST> 1.117237e+02
<TRANSP> 5
 0.000000e+00 1.000000e+00 0.000000e+00 0.000000e+00 0.000000e+00
 0.000000e+00 6.818593e-01 3.181407e-01 0.000000e+00 0.000000e+00
 0.000000e+00 0.000000e+00 7.874860e-01 2.125139e-01 0.000000e+00
 0.000000e+00 0.000000e+00 0.000000e+00 6.626663e-01 3.373337e-01
 0.000000e+00 0.000000e+00 0.000000e+00 0.000000e+00 0.000000e+00
<ENDHMM>
~h "z"
<BEGINHMM>
<NUMSTATES> 5
<STATE> 2
<MEAN> 39
 -1.653445e+01 3.010881e+00 -2.725029e+00 -8.492206e+00 -4.099000e+00 -1.131673e+01 -7.960723e+00 -4.227043e+00 -3.756516e+00 -2.654629e+00 -4.482467e+00 -1.164998e+00 5.683338e+01 -4.516349e+00 1.911468e+00 -7.340755e-01 3.743942e-01 2.425822e+00 1.185033e+00 1.607241e+00 8.680816e-01 5.416028e-01 5.745672e-02 5.032417e-01 3.137428e-01 -2.645829e-01 4.193170e-02 -7.162616e-01 -1.359326e-01 -9.561263e-02 -2.497878e-01 4.066390e-01 1.969163e-01 4.048322e-01 3.926069e-02 1.876857e-01 1.680213e-01 3.359057e-04 5.698101e-02
<VARIANCE> 39
 5.342945e+01 3.513086e+01 4.461090e+01 4.089376e+01 5.376152e+01 5.121587e+01 4.762892e+01 3.784025e+01 3.485450e+01 3.655539e+01 2.587647e+01 2.441788e+01 2.446894e+01 3.049640e+00 4.768684e+00 3.688125e+00 5.456190e+00 3.783523e+00 5.663069e+00 4.591511e+00 4.792655e+00 3.957711e+00 3.760618e+00 3.530793e+00 3.245747e+00 1.517067e+00 1.073330e+00 7.124004e-01 5.172842e-01 6.437271e-01 7.837133e-01 8.103678e-01 7.479706e-01 7.093154e-01 5.762303e-01 6.369167e-01 5.165823e-01 4.966937e-01 1.876604e-01
<GCONST> 1.298363e+02
<STATE> 3
<MEAN> 39
 -2.879853e+01 1.860204e+00 -7.508573e+00 -8.623974e+00 5.902111e-01 -5.498104e+00 -1.378164e+00 1.147622e+00 -1.499820e+00 -7.298914e-01 -1.730793e+00 8.443931e-02 5.590836e+01 -3.280101e-01 -6.426449e-01 -3.209785e-01 -2.277868e-01 -3.620913e-02 1.816787e-01 2.139935e-01 3.675417e-01 2.515669e-01 2.011745e-01 1.662862e-01 4.844461e-02 8.691099e-02 1.081009e+00 -2.673891e-01 2.522013e-01 -4.434458e-02 -4.325231e-01 -3.424796e-01 -4.539667e-01 -3.166329e-01 -1.154144e-01 -7.531583e-02 -1.536048e-01 -1.134132e-01 -1.162866e-01
<VARIANCE> 39
 1.367169e+01 2.657695e+01 4.423394e+01 4.227555e+01 3.787337e+01 3.418579e+01 3.823624e+01 2.937424e+01 2.102739e+01 1.982720e+01 1.819462e+01 1.480590e+01 1.643142e+01 3.808427e+00 1.552276e+00 1.896024e+00 1.681448e+00 2.079508e+00 2.890600e+00 2.602533e+00 2.270928e+00 2.050698e+00 1.915127e+00 1.683342e+00 1.468155e+00 8.862391e-01 6.806561e-01 3.868986e-01 3.774885e-01 4.733066e-01 5.210910e-01 6.064758e-01 5.701839e-01 5.073084e-01 4.457856e-01 4.140273e-01 3.901388e-01 3.450069e-01 2.514729e-01
<GCONST> 1.118586e+02
<STATE> 4
<MEAN> 39
 -2.088243e+01 -2.241380e+00 -5.733271e+00 -8.730890e+00 -2.085101e+00 -6.309406e+00 -4.559421e+00 -2.728069e-01 -9.934666e-01 -5.597342e-01 -2.394571e+00 -8.483659e-01 5.158445e+01 2.814050e+00 -1.174302e+00 1.356972e-01 2.915745e-01 -9.868709e-01 -4.337759e-02 -6.922805e-01 -6.031046e-01 -1.313731e-01 6.485820e-02 -2.167439e-01 -2.998416e-01 -1.313797e+00 2.839273e-01 -2.650053e-02 -6.148546e-02 4.927457e-02 -1.434629e-01 8.569860e-02 -8.541391e-03 -6.186829e-02 -1.376536e-01 -1.479426e-02 -5.084398e-03 -3.095876e-02 -3.199552e-02
<VARIANCE> 39
 4.597725e+01 3.631216e+01 4.101299e+01 3.715696e+01 4.368326e+01 5.336987e+01 4.944394e+01 3.834855e+01 3.258360e+01 3.168312e+01 2.608910e+01 2.161920e+01 7.967945e+01 6.027958e+00 3.674371e+00 3.598472e+00 4.728166e+00 4.955025e+00 5.734254e+00 5.584713e+00 4.327800e+00 3.745658e+00 3.373539e+00 3.192393e+00 2.588942e+00 6.630117e+00 9.833126e-01 6.236606e-01 5.418297e-01 6.977501e-01 7.599816e-01 9.381922e-01 8.764749e-01 8.031698e-01 7.042070e-01 6.256396e-01 5.662629e-01 4.745212e-01 9.980951e-01
<GCONST> 1.340983e+02
<TRANSP> 5
 0.000000e+00 1.000000e+00 0.000000e+00 0.000000e+00 0.000000e+00
 0.000000e+00 6.754116e-01 3.245884e-01 0.000000e+00 0.000000e+00
 0.000000e+00 0.000000e+00 7.860815e-01 2.139185e-01 0.000000e+00
 0.000000e+00 0.000000e+00 0.000000e+00 6.803060e-01 3.196940e-01
 0.000000e+00 0.000000e+00 0.000000e+00 0.000000e+00 0.000000e+00
<ENDHMM>
~h "aa"
<BEGINHMM>
<NUMSTATES> 5
<STATE> 2
<MEAN> 39
 -1.607363e+00 -1.504669e+01 -1.201698e+01 -1.545068e+01 -8.750507e+00 -2.903384e+00 -7.971360e+00 9.734666e-01 -1.115381e+00 -6.247613e-01 -2.692736e+00 -5.693428e+00 6.440906e+01 1.432431e+00 -1.603697e+00 -1.744121e+00 -1.106282e+00 5.359247e-01 1.215178e+00 1.084350e-01 2.578922e-01 1.866610e-01 -8.224156e-02 6.918229e-02 -7.779925e-01 1.162360e+00 -6.162238e-01 3.430429e-01 2.062611e-01 4.400941e-01 4.133686e-01 1.159219e-01 3.299665e-01 -2.462085e-01 -1.586103e-01 -1.091557e-01 6.866993e-02 2.744813e-01 -5.669906e-01
<VARIANCE> 39
 1.612466e+01 3.413301e+01 4.850237e+01 5.531699e+01 5.867903e+01 9.077567e+01 8.282049e+01 7.697240e+01 6.838130e+01 5.509621e+01 7.393155e+01 4.185727e+01 2.853115e+01 3.259658e+00 2.363390e+00 3.117059e+00 3.772342e+00 4.778058e+00 4.732767e+00 5.789617e+00 5.606926e+00 4.645611e+00 3.910756e+00 4.157428e+00 3.657901e+00 1.837067e+00 4.348175e-01 3.985655e-01 4.325594e-01 5.874714e-01 7.307612e-01 9.196289e-01 1.010150e+00 9.343700e-01 7.629461e-01 6.933903e-01 7.235974e-01 5.743251e-01 4.528005e-01
<GCONST> 1.342952e+02
<STATE> 3
<MEAN> 39
 -7.028615e-02 -1.710585e+01 -1.698700e+01 -1.669816e+01 -4.201624e+00 9.072101e-01 -5.797850e+00 -8.478840e-01 -1.225984e+00 -2.400976e+00 -2.027630e+00 -5.812533e+00 6.514681e+01 8.915809e-02 -7.034741e-02 -2.966339e-01 2.751811e-01 3.450395e-01 -3.343561e-01 -2.311268e-01 2.070853e-01 1.796459e-01 -1.753909e-01 -1.138385e-01 5.367549e-02 -7.342336e-02 -4.323237e-02 1.861929e-01 1.884193e-01 1.158721e-01 -1.605373e-01 -3.027880e-01 -1.580498e-01 1.072804e-01 1.498322e-02 3.883814e-02 -5.924810e-02 5.150003e-02 -1.461488e-01
<VARIANCE> 39
 1.362638e+01 3.270493e+01 3.687592e+01 5.681480e+01 5.738007e+01 8.990701e+01 8.860381e+01 9.381756e+01 7.830130e+01 5.439835e+01 6.781007e+01 4.383943e+01 2.092625e+01 2.764421e-01 6.791840e-01 9.510997e-01 1.327392e+00 1.469235e+00 2.137989e+00 2.313060e+00 2.097601e+00 1.660377e+00 1.521350e+00 1.476267e+00 1.321335e+00 2.355944e-01 5.732367e-02 1.165123e-01 1.430639e-01 1.945470e-01 2.218386e-01 2.544805e-01 3.325835e-01 3.050703e-01 2.909755e-01 2.704464e-01 2.503051e-01 2.361540e-01 5.727543e-02
<GCONST> 1.018437e+02
<STATE> 4
<MEAN> 39
 -8.106335e-01 -1.583861e+01 -1.494880e+01 -1.527390e+01 -5.637842e+00 -3.007312e+00 -7.380960e+00 7.116299e-01 8.804885e-02 -1.612566e+00 -3.821583e+00 -6.150499e+00 6.370445e+01 -3.635928e-01 1.724392e+00 1.151644e+00 1.374441e+00 -4.841879e-01 -1.690197e+00 -7.214710e-01 3.198653e-01 -2.363950e-01 1.846910e-01 -1.637421e-01 5.415584e-01 -2.027472e+00 -4.593463e-01 5.765652e-01 4.536850e-01 5.120373e-01 1.574246e-01 3.273489e-02 7.524388e-02 -3.397731e-01 -2.552865e-01 -3.963542e-02 7.530334e-02 1.889021e-01 -7.695577e-01
<VARIANCE> 39
 1.550394e+01 3.507586e+01 4.538392e+01 5.355774e+01 5.652429e+01 9.605772e+01 9.707798e+01 8.704424e+01 7.347665e+01 5.952409e+01 6.723910e+01 5.093302e+01 2.837328e+01 1.499779e+00 3.458798e+00 2.738989e+00 3.778768e+00 3.585256e+00 3.707383e+00 4.771911e+00 4.779083e+00 4.043997e+00 3.704754e+00 3.457515e+00 3.097544e+00 3.990041e+00 3.924393e-01 4.013028e-01 3.425460e-01 5.280123e-01 5.950556e-01 7.676991e-01 7.438318e-01 7.671815e-01 6.465229e-01 6.545674e-01 5.941790e-01 5.402957e-01 4.530808e-01
<GCONST> 1.317494e+02
<TRANSP> 5
 0.000000e+00 1.000000e+00 0.000000e+00 0.000000e+00 0.000000e+00
 0.000000e+00 6.777248e-01 3.222751e-01 0.000000e+00 0.000000e+00
 0.000000e+00 0.000000e+00 8.578054e-01 1.421946e-01 0.000000e+00
 0.000000e+00 0.000000e+00 0.000000e+00 5.606303e-01 4.393698e-01
 0.000000e+00 0.000000e+00 0.000000e+00 0.000000e+00 0.000000e+00
<ENDHMM>
~h "ae"
<BEGINHMM>
<NUMSTATES> 5
<STATE> 2
<MEAN> 39
 -4.728745e+00 -1.488202e+01 -3.286013e+00 -1.309284e+01 -1.574402e+01 -9.829277e+00 -4.651138e+00 4.660207e+00 -3.404348e+00 -2.667720e+00 -3.942051e+00 -3.600854e+00 6.448842e+01 5.771977e-01 -1.511382e+00 -2.491582e-01 -6.400546e-01 -4.058508e-01 5.715154e-02 1.354614e-01 1.137673e+00 2.324071e-01 -4.882618e-01 -1.995202e-01 -1.882507e-01 1.275222e+00 -4.042424e-01 4.128980e-01 -1.305771e-01 2.998408e-01 5.190077e-01 2.732576e-01 1.290381e-01 -3.039849e-01 2.365866e-02 3.044414e-02 1.746614e-02 1.254142e-01 -5.280168e-01
<VARIANCE> 39
 1.668699e+01 3.376229e+01 5.231681e+01 5.580063e+01 5.197944e+01 6.168666e+01 8.399222e+01 6.966047e+01 8.099129e+01 4.926478e+01 5.616068e+01 3.858626e+01 2.728146e+01 2.036187e+00 2.232918e+00 2.494752e+00 2.616400e+00 3.243383e+00 3.444581e+00 4.836884e+00 3.833688e+00 3.349768e+00 2.781633e+00 2.680273e+00 2.204917e+00 1.934305e+00 3.744104e-01 3.589258e-01 3.491494e-01 4.305477e-01 4.946601e-01 5.350013e-01 6.697503e-01 6.215757e-01 5.991163e-01 5.282711e-01 5.034455e-01 3.931638e-01 3.229544e-01
<GCONST> 1.254004e+02
<STATE> 3
<MEAN> 39
 -4.443583e+00 -1.701221e+01 -6.309914e+00 -1.282271e+01 -1.333702e+01 -7.779589e+00 -2.009368e+00 5.147711e+00 -2.139033e+00 -4.853209e+00 -5.600845e+00 -3.683645e+00 6.566538e+01 4.478400e-02 1.260672e-03 -2.445969e-01 8.475785e-02 2.707870e-01 1.718298e-02 -3.313481e-02 1.255436e-03 5.978289e-02 -1.117364e-01 -1.170340e-01 2.071249e-02 -8.160323e-02 1.146596e-02 2.075918e-01 2.436312e-02 7.849752e-02 1.785481e-02 -9.848883e-02 -1.511722e-01 -1.208303e-01 -4.182328e-02 1.091606e-01 4.984426e-02 4.597864e-03 -1.858198e-01
<VARIANCE> 39
 1.487813e+01 3.107701e+01 4.977976e+01 4.759985e+01 5.577859e+01 6.620375e+01 7.798358e+01 6.633111e+01 8.878474e+01 4.472184e+01 4.714383e+01 4.226810e+01 2.363874e+01 2.962129e-01 6.399589e-01 1.108753e+00 8.967549e-01 1.314615e+00 1.317320e+00 1.602235e+00 1.454610e+00 1.387889e+00 1.258645e+00 1.220903e+00 1.011659e+00 2.549361e-01 5.656650e-02 1.323261e-01 1.518976e-01 1.643457e-01 2.099836e-01 2.128712e-01 2.554610e-01 2.721148e-01 2.444711e-01 2.176923e-01 2.096034e-01 1.824032e-01 7.350992e-02
<GCONST> 9.735795e+01
<STATE> 4
<MEAN> 39
 -4.262591e+00 -1.467195e+01 -5.690972e+00 -1.245468e+01 -1.316564e+01 -9.767196e+00 -4.943704e+00 4.533817e+00 -2.432082e+00 -3.456175e+00 -5.218750e+00 -3.674227e+00 6.365119e+01 -2.418459e-01 2.058449e+00 4.235253e-01 1.109957e+00 5.484182e-01 -4.345324e-01 -7.284055e-01 -1.035733e+00 -5.658766e-01 4.174639e-01 2.960744e-01 1.031041e-01 -2.199723e+00 -4.442415e-01 6.509749e-01 1.552589e-01 4.719127e-01 3.571999e-01 2.422193e-01 1.974302e-01 -4.583116e-01 -2.083128e-01 1.475318e-02 7.141066e-02 2.989105e-02 -7.806855e-01
<VARIANCE> 39
 1.368202e+01 3.131064e+01 6.252857e+01 4.762440e+01 6.030550e+01 6.560574e+01 8.297652e+01 6.680607e+01 8.209793e+01 5.454426e+01 6.112977e+01 4.494401e+01 3.102851e+01 1.574209e+00 3.100301e+00 3.004531e+00 3.053771e+00 3.724329e+00 3.616491e+00 4.123852e+00 4.396461e+00 4.622657e+00 3.647124e+00 3.432085e+00 2.819092e+00 3.337665e+00 4.157734e-01 3.561012e-01 4.384155e-01 4.765821e-01 6.293735e-01 6.835508e-01 7.471795e-01 7.675518e-01 7.656857e-01 7.288588e-01 6.993785e-01 5.190075e-01 3.878302e-01
<GCONST> 1.305802e+02
<TRANSP> 5
 0.000000e+00 1.000000e+00 0.000000e+00 0.000000e+00 0.000000e+00
 0.000000e+00 5.956839e-01 4.043160e-01 0.000000e+00 0.000000e+00
 0.000000e+00 0.000000e+00 8.440185e-01 1.559815e-01 0.000000e+00
 0.000000e+00 0.000000e+00 0.000000e+00 6.207447e-01 3.792553e-01
 0.000000e+00 0.000000e+00 0.000000e+00 0.000000e+00 0.000000e+00
<ENDHMM>
~h "ah"
<BEGINHMM>
<NUMSTATES> 5
<STATE> 2
<MEAN> 39
 -2.944550e+00 -1.256357e+01 -8.938166e+00 -1.555020e+01 -9.586478e+00 -4.469152e+00 -1.057534e+01 -3.688977e-01 -5.185265e-01 -2.027674e-01 -3.759546e+00 -5.133313e+00 6.359141e+01 1.574554e+00 -1.933493e+00 -6.890448e-01 -1.610267e+00 -3.727093e-01 8.688091e-01 -8.669531e-01 5.688331e-01 9.704466e-01 1.700343e-01 -5.156577e-01 -9.343973e-01 1.670675e+00 -7.888115e-01 4.223267e-01 1.366291e-01 5.262983e-01 4.289111e-01 7.087620e-02 4.997119e-01 -1.268478e-01 -1.890813e-01 -8.305985e-02 5.513363e-02 1.993494e-01 -6.294250e-01
<VARIANCE> 39
 1.557324e+01 3.249220e+01 5.114539e+01 5.233139e+01 5.698794e+01 8.879250e+01 6.682504e+01 6.544349e+01 6.145987e+01 6.393334e+01 7.793027e+01 4.428142e+01 2.754045e+01 4.325826e+00 2.804676e+00 3.101292e+00 4.264937e+00 5.167703e+00 5.468746e+00 5.805562e+00 5.627411e+00 5.313598e+00 4.646551e+00 4.781100e+00 3.753080e+00 2.322969e+00 5.765886e-01 4.904307e-01 5.107596e-01 6.716747e-01 7.051049e-01 9.883686e-01 9.048872e-01 8.948893e-01 7.804858e-01 7.427093e-01 8.099598e-01 6.274012e-01 5.174376e-01
<GCONST> 1.365031e+02
<STATE> 3
<MEAN> 39
 -2.509856e+00 -1.499083e+01 -1.090943e+01 -1.735423e+01 -7.051977e+00 -1.953617e+00 -9.843001e+00 4.651628e-01 1.094451e+00 -1.252986e+00 -5.063498e+00 -6.204923e+00 6.519292e+01 -2.018799e-02 2.096146e-01 8.088323e-02 5.840332e-02 1.122358e-01 -1.521831e-01 -4.055918e-02 -8.404063e-02 -1.205171e-02 -2.748111e-02 -8.414747e-02 -2.075725e-02 -2.114962e-01 -1.392069e-01 4.960186e-01 2.420175e-01 3.416084e-01 -7.887467e-02 -2.916643e-01 5.815097e-02 -2.024891e-01 -3.243579e-01 2.574156e-02 1.185950e-01 1.827010e-01 -4.664631e-01
<VARIANCE> 39
 1.135203e+01 2.824722e+01 3.690482e+01 5.558672e+01 5.830808e+01 8.737815e+01 7.013935e+01 6.034004e+01 6.635690e+01 6.946401e+01 7.024937e+01 5.111483e+01 2.378118e+01 4.312944e-01 1.025480e+00 1.415219e+00 1.605096e+00 1.861060e+00 2.675554e+00 2.125098e+00 2.394204e+00 2.034698e+00 1.956354e+00 2.084572e+00 1.905791e+00 5.927441e-01 1.669792e-01 2.573017e-01 2.160594e-01 3.326012e-01 3.774791e-01 4.155774e-01 5.127553e-01 4.983468e-01 4.598842e-01 4.043556e-01 3.979724e-01 3.896759e-01 1.989158e-01
<GCONST> 1.130679e+02
<STATE> 4
<MEAN> 39
 -2.191318e+00 -1.178347e+01 -8.799386e+00 -1.527253e+01 -8.698136e+00 -5.222825e+00 -1.109270e+01 -9.691620e-01 -9.547688e-01 -2.903550e-02 -3.762685e+00 -5.120265e+00 6.183877e+01 -8.563936e-01 2.604357e+00 1.280830e+00 2.069152e+00 2.433975e-01 -7.522666e-01 5.511734e-01 -1.342569e+00 -1.594064e+00 -3.459276e-01 2.351850e-01 6.329394e-01 -2.913583e+00 -6.513560e-01 4.997453e-01 2.232021e-01 5.840383e-01 2.796235e-01 1.963018e-01 4.670926e-01 -2.428266e-01 -2.729024e-01 -1.574103e-01 -7.534657e-02 8.526877e-02 -6.492841e-01
<VARIANCE> 39
 1.326677e+01 3.236567e+01 4.454928e+01 5.437734e+01 4.984134e+01 8.696073e+01 6.860015e+01 6.845885e+01 6.785983e+01 7.165214e+01 7.786163e+01 4.943053e+01 3.176841e+01 2.295302e+00 2.791769e+00 2.775585e+00 4.067241e+00 4.374444e+00 4.813411e+00 5.358309e+00 5.306271e+00 5.252080e+00 5.014769e+00 4.561686e+00 3.832143e+00 3.876720e+00 4.860971e-01 5.197297e-01 4.490217e-01 6.834164e-01 6.283464e-01 9.152375e-01 7.768172e-01 1.046220e+00 7.896292e-01 8.214692e-01 8.179524e-01 6.253548e-01 6.182245e-01
<GCONST> 1.358255e+02
<TRANSP> 5
 0.000000e+00 1.000000e+00 0.000000e+00 0.000000e+00 0.000000e+00
 0.000000e+00 5.371809e-01 4.628191e-01 0.000000e+00 0.000000e+00
 0.000000e+00 0.000000e+00 7.664461e-01 2.335539e-01 0.000000e+00
 0.000000e+00 0.000000e+00 0.000000e+00 5.216761e-01 4.783240e-01
 0.000000e+00 0.000000e+00 0.000000e+00 0.000000e+00 0.000000e+00
<ENDHMM>
~h "ao"
<BEGINHMM>
<NUMSTATES> 5
<STATE> 2
<MEAN> 39
 -3.295411e-01 -9.135270e+00 -1.361392e+01 -2.018292e+01 -1.038549e+01 9.415025e-01 -4.893121e+00 -2.210716e+00 -4.290366e+00 -9.542962e-01 -4.899724e-01 -3.569650e+00 5.921423e+01 1.235256e+00 -7.209833e-01 -7.931327e-01 -1.764442e+00 -1.709464e-01 1.374495e+00 2.806867e-01 -2.374777e-01 -1.755607e-01 -1.444045e-01 2.843340e-01 -8.159251e-02 1.157380e+00 -5.254873e-01 8.413765e-02 1.286859e-01 4.765554e-01 3.510793e-01 -1.381467e-01 3.761942e-02 4.888001e-02 9.721159e-02 -7.038037e-02 -3.804930e-02 1.735110e-01 -2.684463e-01
<VARIANCE> 39
 2.129420e+01 4.850994e+01 4.156721e+01 7.189915e+01 8.049410e+01 7.783667e+01 8.836713e+01 6.475861e+01 7.012276e+01 6.445377e+01 6.748694e+01 4.362505e+01 3.985514e+01 3.916622e+00 2.826724e+00 2.827532e+00 4.703949e+00 5.227441e+00 4.660091e+00 5.301828e+00 4.649662e+00 4.345106e+00 4.005906e+00 3.797818e+00 3.315154e+00 2.733357e+00 5.977258e-01 4.421691e-01 4.075475e-01 6.785790e-01 6.797403e-01 7.089890e-01 9.019701e-01 7.456636e-01 8.157720e-01 6.692660e-01 6.783996e-01 5.339283e-01 4.220428e-01
<GCONST> 1.356631e+02
<STATE> 3
<MEAN> 39
 8.192557e-01 -1.059078e+01 -1.522622e+01 -2.461980e+01 -9.235005e+00 5.969594e+00 -2.062572e+00 -3.574064e+00 -3.622904e+00 -2.565767e+00 -1.022429e-01 -2.876639e+00 6.176752e+01 -3.804297e-02 -3.205941e-01 -1.958296e-01 2.541168e-01 4.949306e-01 -3.636254e-02 -1.667841e-01 -9.423612e-02 1.430000e-01 7.215271e-02 4.670401e-02 -9.898438e-02 2.226964e-01 -3.503646e-02 5.811290e-02 6.571982e-02 2.571834e-01 -8.509894e-03 -2.789649e-01 -1.767242e-01 4.843180e-02 2.420294e-02 6.706665e-02 -4.036981e-02 -5.737479e-02 -9.504464e-02
<VARIANCE> 39
 1.100785e+01 4.445893e+01 3.811326e+01 6.805502e+01 9.063933e+01 7.009024e+01 7.918497e+01 5.909483e+01 6.166812e+01 5.976440e+01 5.987960e+01 4.380797e+01 2.255162e+01 2.496741e-01 1.087768e+00 8.453816e-01 1.684367e+00 1.644015e+00 1.706666e+00 1.757192e+00 1.499519e+00 1.478131e+00 1.572081e+00 1.508636e+00 1.482189e+00 3.757915e-01 5.679021e-02 1.104702e-01 1.251082e-01 1.894758e-01 2.420503e-01 2.401781e-01 2.734170e-01 2.607563e-01 2.578954e-01 2.531363e-01 2.453183e-01 2.287430e-01 4.834080e-02
<GCONST> 1.009204e+02
<STATE> 4
<MEAN> 39
 1.229974e-01 -1.380357e+01 -1.553344e+01 -1.726714e+01 -6.919705e+00 -2.081213e-01 -6.105723e+00 -1.566017e+00 -2.712930e+00 -5.136491e-01 -8.712969e-01 -5.525623e+00 6.269912e+01 -3.318826e-01 3.342516e-01 6.194302e-01 2.046067e+00 8.607610e-02 -1.878564e+00 -9.144337e-01 5.980609e-01 5.008366e-01 2.621398e-02 -6.664822e-01 1.078885e-01 -6.967843e-01 -3.046819e-01 3.969135e-01 4.179265e-01 2.700391e-01 -8.490398e-02 -1.354868e-01 8.716230e-02 -4.352780e-02 -9.273389e-03 -1.257167e-01 -1.329373e-01 2.759157e-01 -3.990030e-01
<VARIANCE> 39
 1.366415e+01 3.946451e+01 3.825095e+01 6.504536e+01 5.938102e+01 8.125791e+01 8.319370e+01 7.025272e+01 7.363371e+01 6.433296e+01 8.749417e+01 5.445617e+01 2.256776e+01 8.943456e-01 2.625846e+00 2.754513e+00 3.243220e+00 4.281872e+00 3.176803e+00 4.592952e+00 3.997123e+00 4.127207e+00 3.971304e+00 3.428057e+00 3.567564e+00 1.506320e+00 3.831816e-01 2.758666e-01 3.216224e-01 4.734905e-01 5.562645e-01 6.489941e-01 8.071554e-01 7.114336e-01 6.806704e-01 6.454610e-01 7.098763e-01 6.188713e-01 1.823351e-01
<GCONST> 1.282148e+02
<TRANSP> 5
 0.000000e+00 1.000000e+00 0.000000e+00 0.000000e+00 0.000000e+00
 0.000000e+00 6.421930e-01 3.578070e-01 0.000000e+00 0.000000e+00
 0.000000e+00 0.000000e+00 8.573644e-01 1.426356e-01 0.000000e+00
 0.000000e+00 0.000000e+00 0.000000e+00 6.364640e-01 3.635360e-01
 0.000000e+00 0.000000e+00 0.000000e+00 0.000000e+00 0.000000e+00
<ENDHMM>
~h "aw"
<BEGINHMM>
<NUMSTATES> 5
<STATE> 2
<MEAN> 39
 -3.963036e+00 -1.681449e+01 -9.327921e+00 -1.344353e+01 -9.505954e+00 -5.336817e+00 -4.022499e+00 2.242002e+00 -1.932841e+00 -3.025855e+00 -6.245626e+00 -4.658082e+00 6.549846e+01 6.442888e-01 -1.583776e+00 -8.910947e-01 -5.768102e-01 4.779348e-01 7.395207e-01 -2.476297e-03 3.215049e-01 5.237430e-01 -4.840517e-01 -5.311048e-01 -3.708873e-01 1.290564e+00 -3.666555e-01 4.167472e-01 3.037252e-02 2.529381e-01 3.573889e-01 2.191178e-01 6.131380e-02 -3.363113e-01 -9.655903e-02 5.472877e-02 1.590306e-01 1.063724e-01 -5.473191e-01
<VARIANCE> 39
 1.626910e+01 3.355326e+01 5.760334e+01 4.793115e+01 6.521127e+01 6.726292e+01 7.902267e+01 7.176118e+01 7.532379e+01 5.214359e+01 5.100446e+01 4.358435e+01 2.414208e+01 2.047672e+00 2.381407e+00 2.309351e+00 2.652437e+00 3.433421e+00 3.265233e+00 4.283737e+00 4.419292e+00 3.346066e+00 2.747989e+00 2.719104e+00 2.581670e+00 2.065108e+00 4.096245e-01 3.923691e-01 3.552158e-01 4.824827e-01 5.531833e-01 5.820886e-01 7.145348e-01 7.447038e-01 6.391805e-01 5.283222e-01 4.866305e-01 4.534302e-01 3.408970e-01
<GCONST> 1.267168e+02
<STATE> 3
<MEAN> 39
 -2.338178e+00 -1.799767e+01 -1.327717e+01 -1.465890e+01 -5.084367e+00 -7.751489e-01 -4.771875e+00 -1.424393e+00 4.440283e-01 -4.153512e+00 -5.923815e+00 -5.403103e+00 6.568003e+01 2.471457e-01 2.854230e-01 -4.401191e-01 -3.907411e-01 3.640378e-01 5.545632e-01 -2.385146e-01 -4.632530e-01 3.959053e-02 2.027712e-01 3.087691e-01 -7.513576e-02 -2.776305e-01 2.033697e-02 1.877405e-01 5.995557e-02 -3.216080e-02 -1.605359e-01 -8.691367e-02 -3.210575e-02 7.828159e-03 -7.007696e-02 8.644301e-02 9.112740e-02 5.046172e-02 -1.315228e-01
<VARIANCE> 39
 1.394707e+01 2.923480e+01 4.197482e+01 5.183497e+01 5.757526e+01 7.880691e+01 8.275664e+01 7.213862e+01 7.144096e+01 5.268829e+01 5.107465e+01 4.605381e+01 2.140874e+01 2.312144e-01 6.730351e-01 7.390720e-01 1.196784e+00 1.447095e+00 1.510190e+00 1.698241e+00 1.701487e+00 1.535198e+00 1.410557e+00 1.477350e+00 1.299670e+00 2.219481e-01 3.838953e-02 9.423832e-02 1.159746e-01 1.592004e-01 2.015602e-01 2.224194e-01 2.637964e-01 2.523284e-01 2.457177e-01 2.112968e-01 2.284241e-01 2.145236e-01 3.804955e-02
<GCONST> 9.665606e+01
<STATE> 4
<MEAN> 39
 -4.903994e-01 -1.241244e+01 -1.484399e+01 -1.950886e+01 -6.747818e+00 2.137841e+00 -5.711362e+00 -3.372392e+00 -1.422850e+00 -4.744271e-01 -2.305180e+00 -5.199089e+00 6.153552e+01 -8.025517e-02 1.296062e+00 5.931458e-01 6.101205e-01 -8.168243e-01 -9.319291e-01 -2.470721e-01 -7.861958e-02 -4.614210e-01 4.395249e-01 2.736779e-01 3.315228e-01 -1.348494e+00 -2.907153e-01 1.597621e-01 3.609304e-01 5.949260e-01 3.887258e-02 -3.849237e-01 1.327337e-02 -4.271628e-02 -8.682540e-02 -8.342039e-02 -1.711314e-01 6.768946e-02 -2.949451e-01
<VARIANCE> 39
 1.213523e+01 4.101654e+01 3.471118e+01 6.688689e+01 6.365668e+01 7.982076e+01 8.875008e+01 6.044457e+01 6.311850e+01 6.381441e+01 7.272277e+01 4.733044e+01 3.487312e+01 9.133994e-01 2.161125e+00 2.217294e+00 4.707327e+00 3.554100e+00 3.878452e+00 3.867270e+00 3.805988e+00 3.462399e+00 3.354824e+00 3.357892e+00 2.994167e+00 1.595325e+00 2.130466e-01 3.439016e-01 3.304238e-01 5.439685e-01 6.229580e-01 5.306907e-01 6.812907e-01 6.393482e-01 6.206791e-01 6.223563e-01 5.985640e-01 5.102400e-01 3.249551e-01
<GCONST> 1.267911e+02
<TRANSP> 5
 0.000000e+00 1.000000e+00 0.000000e+00 0.000000e+00 0.000000e+00
 0.000000e+00 7.084737e-01 2.915263e-01 0.000000e+00 0.000000e+00
 0.000000e+00 0.000000e+00 8.758813e-01 1.241188e-01 0.000000e+00
 0.000000e+00 0.000000e+00 0.000000e+00 7.576790e-01 2.423209e-01
 0.000000e+00 0.000000e+00 0.000000e+00 0.000000e+00 0.000000e+00
<ENDHMM>
~h "ax"
<BEGINHMM>
<NUMSTATES> 5
<STATE> 2
<MEAN> 39
 -4.952690e+00 -9.100205e+00 -5.355688e+00 -1.228652e+01 -1.069418e+01 -8.942813e+00 -1.022438e+01 -1.408535e+00 -1.607362e+00 -4.759593e-01 -4.154267e+00 -3.328568e+00 5.935144e+01 1.625989e+00 -1.001794e+00 3.674546e-01 -1.088388e+00 -9.319808e-01 -3.341341e-01 -1.054330e+00 2.070314e-01 5.111231e-02 1.731591e-01 -2.946030e-01 -3.183530e-01 1.277519e+00 -6.124700e-01 5.185390e-01 7.865539e-03 4.470717e-01 4.221971e-01 3.580917e-01 5.097946e-01 -1.827125e-01 -3.166146e-01 -6.531006e-02 1.769828e-01 1.004198e-01 -8.366380e-01
<VARIANCE> 39
 2.542348e+01 3.464575e+01 5.989657e+01 5.975649e+01 6.082316e+01 7.414694e+01 7.272769e+01 6.259101e+01 6.222351e+01 5.852215e+01 5.728658e+01 3.907262e+01 4.144247e+01 4.820086e+00 3.335818e+00 3.962172e+00 5.109600e+00 4.815524e+00 5.301911e+00 5.581127e+00 5.619097e+00 5.321378e+00 4.287415e+00 4.657364e+00 3.415215e+00 4.700870e+00 6.799031e-01 5.702029e-01 5.447874e-01 7.742606e-01 7.441047e-01 8.881347e-01 9.754038e-01 8.940977e-01 9.180627e-01 7.890368e-01 7.236380e-01 6.075594e-01 9.198530e-01
<GCONST> 1.394394e+02
<STATE> 3
<MEAN> 39
 -3.832792e+00 -1.099776e+01 -3.831610e+00 -1.382206e+01 -1.207847e+01 -8.732330e+00 -1.115374e+01 -2.137559e-01 -2.420920e+00 -5.743188e-01 -4.027668e+00 -3.372905e+00 6.164719e+01 8.759796e-02 6.701056e-01 2.223120e-01 3.200212e-01 2.604242e-01 1.347683e-01 2.048422e-01 -4.787154e-01 -5.400858e-01 -5.445745e-02 1.150561e-01 2.360395e-02 -8.086213e-01 -6.582705e-01 8.559649e-01 -5.902767e-02 6.933696e-01 5.488948e-01 2.456976e-01 5.520950e-01 -4.235853e-01 -3.071858e-01 -1.378722e-01 9.946878e-02 6.851801e-02 -1.010624e+00
<VARIANCE> 39
 1.638142e+01 3.063204e+01 7.242854e+01 6.443769e+01 6.632198e+01 7.944481e+01 7.709629e+01 6.650709e+01 7.174547e+01 6.324120e+01 6.932255e+01 4.277081e+01 2.256916e+01 1.739141e+00 2.219011e+00 2.669379e+00 3.393747e+00 3.336253e+00 3.340507e+00 3.596612e+00 3.937245e+00 3.677110e+00 3.141806e+00 2.976771e+00 2.579665e+00 2.416561e+00 6.630549e-01 5.180300e-01 5.882997e-01 7.645029e-01 7.778208e-01 9.863630e-01 1.108983e+00 1.004598e+00 9.665697e-01 8.234649e-01 7.968088e-01 6.445380e-01 6.282279e-01
<GCONST> 1.335863e+02
<STATE> 4
<MEAN> 39
 -4.085571e+00 -7.130607e+00 -4.400618e+00 -1.133467e+01 -1.002087e+01 -8.719600e+00 -1.018799e+01 -3.145609e+00 -3.509188e+00 -7.005720e-01 -3.333903e+00 -2.932694e+00 5.738988e+01 -1.227153e+00 2.405056e+00 2.923399e-01 1.746558e+00 1.374081e+00 7.575290e-01 1.210639e+00 -1.201918e+00 -1.058820e+00 -4.758604e-01 1.140380e-01 4.900261e-02 -2.791094e+00 -7.877266e-01 3.170613e-01 -5.155195e-02 3.515726e-01 3.528705e-01 3.315487e-01 4.634742e-01 1.405793e-02 -4.207365e-02 -8.431565e-02 6.825803e-03 4.358479e-02 -5.084749e-01
<VARIANCE> 39
 2.189384e+01 3.032547e+01 6.348680e+01 6.337363e+01 6.124780e+01 7.620439e+01 6.306742e+01 6.390368e+01 6.355723e+01 5.925780e+01 6.157647e+01 4.086628e+01 3.273102e+01 3.782520e+00 3.564630e+00 3.682928e+00 6.059367e+00 4.795867e+00 5.395703e+00 5.737255e+00 5.797627e+00 5.604155e+00 4.732920e+00 4.333891e+00 3.848536e+00 5.994137e+00 6.752071e-01 5.106767e-01 6.089607e-01 7.139381e-01 7.546680e-01 9.407645e-01 8.534891e-01 9.932221e-01 8.851925e-01 8.434312e-01 8.013849e-01 6.137103e-01 6.054450e-01
<GCONST> 1.392164e+02
<TRANSP> 5
 0.000000e+00 1.000000e+00 0.000000e+00 0.000000e+00 0.000000e+00
 0.000000e+00 2.941471e-01 7.058529e-01 0.000000e+00 0.000000e+00
 0.000000e+00 0.000000e+00 4.486186e-01 5.513814e-01 0.000000e+00
 0.000000e+00 0.000000e+00 0.000000e+00 1.950749e-01 8.049251e-01
 0.000000e+00 0.000000e+00 0.000000e+00 0.000000e+00 0.000000e+00
<ENDHMM>
~h "ay"
<BEGINHMM>
<NUMSTATES> 5
<STATE> 2
<MEAN> 39
 -1.908703e+00 -1.512678e+01 -1.370359e+01 -1.703132e+01 -5.886650e+00 -1.773850e-01 -5.266255e+00 -2.167219e+00 -1.613842e-01 -1.007886e+00 -4.377037e+00 -6.461391e+00 6.409339e+01 6.853464e-01 -1.910524e+00 -5.236641e-01 -4.996801e-01 2.901618e-01 5.291357e-01 1.225532e-02 3.534960e-01 7.680313e-01 -3.945007e-01 -6.941375e-01 -6.491858e-01 1.480542e+00 -5.829878e-01 4.195106e-01 4.310255e-01 5.820975e-01 7.872564e-02 -3.082955e-01 1.156676e-01 2.706823e-02 -1.797884e-01 -1.237723e-01 5.764389e-02 3.248372e-01 -5.214086e-01
<VARIANCE> 39
 1.452005e+01 3.420161e+01 3.785580e+01 5.131296e+01 5.801471e+01 8.246587e+01 6.720336e+01 6.452213e+01 6.051622e+01 6.096433e+01 6.979503e+01 4.338105e+01 2.640277e+01 3.040421e+00 2.243367e+00 3.103959e+00 4.537238e+00 3.854389e+00 4.761569e+00 3.960113e+00 4.370846e+00 3.777768e+00 3.310173e+00 3.376690e+00 3.297605e+00 2.238338e+00 4.868955e-01 3.876838e-01 3.829883e-01 6.321172e-01 6.894028e-01 7.171389e-01 7.053877e-01 7.304565e-01 6.578258e-01 6.408528e-01 7.221232e-01 5.519904e-01 3.534884e-01
<GCONST> 1.305981e+02
<STATE> 3
<MEAN> 39
 -2.219797e+00 -1.807284e+01 -1.350645e+01 -1.452770e+01 -4.841318e+00 -1.242920e+00 -4.603024e+00 -8.882938e-01 1.397560e+00 -3.630737e+00 -6.036897e+00 -6.459458e+00 6.558604e+01 -1.945368e-01 -1.649811e-01 5.849151e-01 5.215054e-01 -4.683741e-01 -8.375710e-01 1.085758e-01 7.497098e-01 5.629051e-02 -4.088503e-01 -2.573768e-01 2.606473e-01 3.792467e-02 -1.723418e-02 2.273973e-01 1.656621e-01 -1.669485e-02 -2.426312e-01 -1.777860e-01 1.208957e-02 7.858098e-02 -1.586398e-01 3.309661e-02 1.572581e-01 1.327414e-01 -1.228849e-01
<VARIANCE> 39
 1.164442e+01 3.056009e+01 3.521109e+01 4.562374e+01 5.518454e+01 7.777826e+01 7.022847e+01 6.781238e+01 6.980372e+01 5.333630e+01 5.216932e+01 4.838813e+01 2.075432e+01 2.336617e-01 6.854810e-01 1.037182e+00 1.223857e+00 1.677593e+00 2.026542e+00 1.727688e+00 2.184256e+00 1.469787e+00 1.378012e+00 1.411677e+00 1.356308e+00 2.110749e-01 3.974564e-02 1.188056e-01 1.302589e-01 1.640388e-01 2.264401e-01 2.308563e-01 2.620746e-01 2.854216e-01 2.711354e-01 2.327996e-01 2.611584e-01 2.552189e-01 4.436354e-02
<GCONST> 9.828200e+01
<STATE> 4
<MEAN> 39
 -4.522057e+00 -1.563819e+01 -4.907057e+00 -1.328718e+01 -1.350649e+01 -9.453320e+00 -3.259549e+00 4.884237e+00 -2.098947e+00 -3.551130e+00 -5.180202e+00 -2.892220e+00 6.445182e+01 -3.438833e-01 1.469304e+00 1.643580e+00 4.900421e-01 -1.381949e+00 -1.213739e+00 -3.847182e-02 -2.960003e-01 -1.152641e+00 4.137674e-01 9.298409e-01 5.683163e-01 -1.071664e+00 -9.044185e-02 4.474976e-01 -1.435762e-01 2.044397e-01 4.561133e-01 3.495564e-01 -1.416087e-01 -6.296145e-01 -1.198114e-01 1.542941e-01 4.371473e-02 -1.297878e-01 -5.218357e-01
<VARIANCE> 39
 1.226913e+01 3.452514e+01 5.021270e+01 4.788929e+01 5.982713e+01 6.081973e+01 7.464053e+01 6.250260e+01 7.846956e+01 5.132141e+01 5.013330e+01 3.892183e+01 2.609937e+01 5.990514e-01 1.681992e+00 2.323593e+00 2.906686e+00 3.833434e+00 3.154906e+00 4.177863e+00 4.707603e+00 3.869188e+00 3.512642e+00 2.932089e+00 3.292062e+00 1.259936e+00 1.804718e-01 2.906298e-01 3.365112e-01 4.796612e-01 6.151931e-01 5.067681e-01 6.487842e-01 6.301863e-01 6.765748e-01 6.110970e-01 5.871320e-01 4.742406e-01 2.734833e-01
<GCONST> 1.235046e+02
<TRANSP> 5
 0.000000e+00 1.000000e+00 0.000000e+00 0.000000e+00 0.000000e+00
 0.000000e+00 6.164660e-01 3.835340e-01 0.000000e+00 0.000000e+00
 0.000000e+00 0.000000e+00 8.479072e-01 1.520929e-01 0.000000e+00
 0.000000e+00 0.000000e+00 0.000000e+00 7.546843e-01 2.453157e-01
 0.000000e+00 0.000000e+00 0.000000e+00 0.000000e+00 0.000000e+00
<ENDHMM>
~h "ch"
<BEGINHMM>
<NUMSTATES> 5
<STATE> 2
<MEAN> 39
 -1.889560e+01 -4.361005e+00 -4.372933e-01 -5.343309e+00 -4.192509e+00 -2.450901e+00 -5.231096e+00 -1.813518e+00 -2.767674e+00 -2.388829e+00 -2.298211e+00 -1.294980e+00 4.383029e+01 -2.926156e+00 -6.721574e-01 -2.975483e-01 -8.144634e-01 9.767041e-01 1.920223e+00 8.911857e-01 3.509114e-01 8.506809e-01 5.968666e-01 7.155917e-01 3.929760e-01 1.362676e-01 -1.471773e-03 -3.452217e-01 9.938274e-02 -6.323971e-01 -4.645221e-01 -2.361358e-01 -1.358340e-01 1.781381e-01 6.446140e-02 4.553638e-02 9.871974e-02 3.054623e-02 1.599095e+00
<VARIANCE> 39
 4.376002e+01 5.414167e+01 3.265191e+01 5.417861e+01 3.950063e+01 4.433127e+01 3.184870e+01 3.323060e+01 3.411357e+01 2.799401e+01 2.382702e+01 1.903036e+01 8.176571e+01 5.502545e+00 6.436234e+00 5.277914e+00 8.061683e+00 6.491774e+00 5.098470e+00 4.647923e+00 4.619586e+00 4.436812e+00 3.736608e+00 3.217748e+00 2.607083e+00 2.084738e+01 7.971723e-01 1.601676e+00 9.197105e-01 1.378710e+00 9.943009e-01 1.051148e+00 8.510017e-01 9.085928e-01 7.766294e-01 7.437944e-01 6.857230e-01 4.785941e-01 2.140236e+00
<GCONST> 1.399636e+02
<STATE> 3
<MEAN> 39
 -3.068620e+01 -5.274767e+00 2.030489e+00 -1.178052e+01 -4.715065e+00 1.011099e+00 -2.685833e+00 7.993354e-02 -1.717489e-01 -9.839629e-01 1.496558e-01 2.112754e-01 5.833292e+01 -6.618313e-01 1.063106e-01 4.611881e-01 -4.836626e-02 -8.173463e-01 -2.761003e-01 5.243744e-01 -1.109916e-02 3.552647e-02 4.117641e-02 -1.207770e-02 4.290869e-02 1.668618e+00 8.636178e-01 -3.933511e-03 -1.404558e-01 4.392756e-01 -1.391243e-01 -4.188457e-01 -7.360345e-02 -7.628286e-02 -2.221253e-01 -8.801307e-02 -1.884614e-01 -1.013205e-01 -6.669213e-01
<VARIANCE> 39
 1.724073e+01 2.954625e+01 3.035543e+01 2.374675e+01 3.627477e+01 2.092542e+01 2.238415e+01 2.202220e+01 1.928367e+01 1.592379e+01 1.325535e+01 1.134308e+01 2.714933e+01 4.176319e+00 2.550914e+00 2.608568e+00 2.443001e+00 2.296760e+00 2.253460e+00 1.884597e+00 1.977767e+00 1.701745e+00 1.655437e+00 1.442266e+00 1.260345e+00 5.238908e+00 5.870939e-01 5.386146e-01 5.606326e-01 5.283369e-01 4.676569e-01 4.595801e-01 4.264989e-01 4.047376e-01 3.690998e-01 3.575270e-01 3.006939e-01 2.639916e-01 7.114581e-01
<GCONST> 1.112705e+02
<STATE> 4
<MEAN> 39
 -2.355819e+01 -8.406727e+00 1.151067e+00 -7.587248e+00 -9.918244e+00 -4.785431e+00 -1.143772e+00 -1.940597e-01 -1.374049e+00 -1.583608e+00 -1.318347e+00 -6.361629e-01 5.903365e+01 3.866353e+00 -3.896361e-01 -6.432437e-01 6.438385e-01 -4.547742e-01 -1.767223e+00 -1.185987e+00 8.506109e-02 -6.512448e-01 -5.751202e-01 -5.294005e-01 -3.346234e-01 -7.958285e-01 6.604051e-01 -6.244711e-02 -1.712154e-01 -3.201656e-01 1.260819e-01 9.359002e-02 -6.113076e-01 2.150838e-02 -4.365506e-02 -5.456825e-02 2.402756e-02 -3.627996e-02 -1.198705e-01
<VARIANCE> 39
 4.457383e+01 2.010890e+01 2.536846e+01 3.159292e+01 3.395058e+01 3.162507e+01 3.073774e+01 2.750786e+01 2.478782e+01 2.149037e+01 2.128849e+01 1.635531e+01 2.572489e+01 5.344151e+00 2.164493e+00 3.195203e+00 3.077208e+00 4.510669e+00 4.298866e+00 5.403123e+00 3.754900e+00 3.314685e+00 2.928239e+00 2.883924e+00 2.126086e+00 3.090900e+00 8.518736e-01 4.105749e-01 5.281078e-01 5.207320e-01 6.816825e-01 7.624526e-01 7.791451e-01 6.797428e-01 6.232743e-01 5.876769e-01 5.139313e-01 4.250341e-01 8.063234e-01
<GCONST> 1.238099e+02
<TRANSP> 5
 0.000000e+00 1.000000e+00 0.000000e+00 0.000000e+00 0.000000e+00
 0.000000e+00 7.324391e-01 2.675609e-01 0.000000e+00 0.000000e+00
 0.000000e+00 0.000000e+00 8.058946e-01 1.941054e-01 0.000000e+00
 0.000000e+00 0.000000e+00 0.000000e+00 7.065791e-01 2.934209e-01
 0.000000e+00 0.000000e+00 0.000000e+00 0.000000e+00 0.000000e+00
<ENDHMM>
~h "dh"
<BEGINHMM>
<NUMSTATES> 5
<STATE> 2
<MEAN> 39
 -1.584103e+01 -4.123823e-01 -5.350081e+00 -2.753304e+00 -3.236016e+00 -3.606418e+00 -3.823532e+00 -2.935529e+00 -2.136529e+00 -9.073527e-01 -2.651804e+00 -2.041638e+00 4.250677e+01 -5.698851e-02 -1.585232e-01 -1.555706e-01 -2.618863e-01 -3.004780e-01 -2.180158e-01 4.806034e-02 2.054445e-01 2.229096e-01 -2.031628e-01 1.905590e-03 8.378775e-02 1.320602e+00 5.757473e-01 -5.534223e-01 -1.069951e-01 -5.646979e-01 -5.774172e-01 -4.760739e-01 -2.628863e-01 1.455619e-01 1.438385e-01 3.704520e-02 -9.557638e-03 3.900107e-02 1.197017e+00
<VARIANCE> 39
 4.926242e+01 2.192463e+01 2.127880e+01 2.544394e+01 2.372385e+01 3.311798e+01 3.806634e+01 3.809143e+01 3.014825e+01 2.578321e+01 2.705949e+01 2.608843e+01 7.654575e+01 4.676232e+00 2.982388e+00 3.328472e+00 3.657684e+00 3.218266e+00 4.075070e+00 3.706752e+00 3.518913e+00 3.139828e+00 2.644494e+00 2.585375e+00 2.403693e+00 1.095991e+01 7.108290e-01 5.730340e-01 6.192747e-01 6.982912e-01 6.213804e-01 7.187229e-01 7.711109e-01 7.287847e-01 6.772923e-01 5.984229e-01 5.531732e-01 5.127135e-01 1.148889e+00
<GCONST> 1.279264e+02
<STATE> 3
<MEAN> 39
 -1.490790e+01 -3.770574e+00 -8.131925e+00 -6.621325e+00 -6.392427e+00 -6.183148e+00 -3.409138e+00 -1.778638e+00 -8.462954e-01 -1.475022e+00 -2.284336e+00 -7.764035e-01 5.256589e+01 2.461561e+00 -9.173275e-01 1.817643e-01 -1.431300e+00 -1.963550e+00 -1.940882e+00 -1.345215e+00 1.704733e-01 4.344260e-01 -1.820469e-01 -4.254120e-01 -2.682788e-01 4.169213e+00 6.065543e-01 -2.446158e-01 4.688847e-01 -1.762367e-01 -3.158691e-01 -1.554486e-01 -4.072260e-01 3.450067e-02 -1.066131e-01 1.722859e-01 -1.009139e-01 -1.943435e-01 -1.389432e-01
<VARIANCE> 39
 3.502301e+01 2.668533e+01 2.345998e+01 2.455811e+01 2.394632e+01 2.748674e+01 3.713031e+01 2.998334e+01 2.538350e+01 2.273438e+01 2.254390e+01 2.255779e+01 4.328435e+01 4.423026e+00 3.115391e+00 3.916296e+00 3.719860e+00 3.953134e+00 4.338776e+00 4.678479e+00 4.651805e+00 4.701189e+00 3.613741e+00 3.499284e+00 3.363788e+00 6.277106e+00 5.190699e-01 6.775479e-01 6.403341e-01 6.767732e-01 5.558853e-01 7.238701e-01 7.645187e-01 6.882851e-01 6.665302e-01 5.721344e-01 6.531093e-01 4.937189e-01 9.578392e-01
<GCONST> 1.275225e+02
<STATE> 4
<MEAN> 39
 -6.864663e+00 -4.981711e+00 -5.761009e+00 -8.742256e+00 -1.128983e+01 -1.149678e+01 -8.766100e+00 -2.515000e+00 -1.633013e-01 -1.160798e+00 -3.872244e+00 -3.085800e+00 5.898783e+01 2.292230e+00 -1.912954e+00 7.580298e-01 -1.719576e+00 -2.042886e+00 -1.407555e+00 -1.415083e+00 6.910838e-01 2.733127e-01 2.291244e-01 -2.906955e-01 -3.494001e-01 2.922845e+00 -5.054275e-01 -8.920787e-02 1.393109e-01 1.681070e-01 3.968030e-01 6.164266e-01 3.758353e-01 1.171891e-01 -2.803546e-01 2.728564e-02 8.993374e-02 9.018961e-02 -9.169374e-01
<VARIANCE> 39
 2.225879e+01 2.842598e+01 3.588155e+01 3.816848e+01 4.266743e+01 4.225234e+01 5.215498e+01 4.364915e+01 4.831062e+01 4.026726e+01 3.423996e+01 3.405790e+01 3.174202e+01 3.708153e+00 3.188221e+00 4.330785e+00 4.227847e+00 4.173258e+00 5.401379e+00 6.310794e+00 5.312496e+00 5.318112e+00 4.015179e+00 4.452636e+00 3.707618e+00 4.102239e+00 5.480142e-01 4.061953e-01 4.324415e-01 5.418590e-01 5.547317e-01 5.525833e-01 6.096826e-01 6.377454e-01 6.084719e-01 5.470153e-01 4.864368e-01 4.832530e-01 6.700189e-01
<GCONST> 1.299221e+02
<TRANSP> 5
 0.000000e+00 1.000000e+00 0.000000e+00 0.000000e+00 0.000000e+00
 0.000000e+00 5.714095e-01 4.285905e-01 0.000000e+00 0.000000e+00
 0.000000e+00 0.000000e+00 3.869539e-01 6.130461e-01 0.000000e+00
 0.000000e+00 0.000000e+00 0.000000e+00 2.952169e-01 7.047832e-01
 0.000000e+00 0.000000e+00 0.000000e+00 0.000000e+00 0.000000e+00
<ENDHMM>
~h "eh"
<BEGINHMM>
<NUMSTATES> 5
<STATE> 2
<MEAN> 39
 -4.791802e+00 -1.259052e+01 -3.049145e+00 -1.314938e+01 -1.466683e+01 -1.065633e+01 -8.704832e+00 2.787857e+00 -1.718641e+00 -1.416533e+00 -4.078709e+00 -2.800489e+00 6.373592e+01 1.229704e+00 -2.023732e+00 1.172160e-02 -1.178252e+00 -1.246474e+00 -2.617125e-01 -2.584669e-01 1.526160e+00 5.336634e-01 -2.249658e-01 -3.457837e-01 -2.933759e-01 1.854851e+00 -6.537860e-01 4.177200e-01 -2.282399e-01 2.528934e-01 5.881308e-01 4.770186e-01 4.756048e-01 -2.285409e-01 -1.346184e-01 -3.318522e-03 1.147666e-01 6.537691e-02 -5.607851e-01
<VARIANCE> 39
 1.759844e+01 3.496770e+01 6.200721e+01 5.225401e+01 5.283276e+01 5.713652e+01 8.087256e+01 6.127557e+01 7.579298e+01 5.225839e+01 5.439170e+01 3.919889e+01 2.801580e+01 4.131243e+00 2.609754e+00 3.269496e+00 3.477206e+00 4.417299e+00 4.704885e+00 6.093216e+00 4.835665e+00 4.837492e+00 3.873569e+00 3.700182e+00 3.121799e+00 2.292240e+00 5.912814e-01 4.644318e-01 4.307331e-01 5.551109e-01 6.437863e-01 6.809711e-01 8.163723e-01 8.099113e-01 8.199251e-01 6.401908e-01 6.182517e-01 5.192094e-01 4.625440e-01
<GCONST> 1.329050e+02
<STATE> 3
<MEAN> 39
 -4.452512e+00 -1.500823e+01 -4.867572e+00 -1.429136e+01 -1.428176e+01 -9.064035e+00 -5.958614e+00 5.024795e+00 -1.192696e+00 -2.925201e+00 -5.083283e+00 -3.012856e+00 6.563200e+01 7.298291e-02 -5.021326e-02 -3.077389e-01 -1.954125e-02 2.964653e-01 1.695352e-01 2.878512e-02 6.011587e-02 1.026553e-02 -1.304851e-01 -9.891361e-02 -1.114199e-01 -6.619731e-02 -1.267530e-02 3.859645e-01 -2.432112e-03 1.934504e-01 1.869467e-01 -4.546703e-02 -1.501853e-01 -3.626705e-01 -1.549705e-01 7.921025e-02 9.745449e-02 3.810154e-02 -3.989909e-01
<VARIANCE> 39
 1.491748e+01 3.001278e+01 5.330035e+01 4.921392e+01 6.076018e+01 6.574674e+01 8.551546e+01 6.167517e+01 8.364149e+01 5.474403e+01 5.685541e+01 4.267207e+01 2.062949e+01 4.145307e-01 8.649512e-01 1.523156e+00 1.267556e+00 1.708643e+00 1.959384e+00 2.202307e+00 2.060416e+00 1.911054e+00 1.732065e+00 1.540761e+00 1.415547e+00 4.563507e-01 1.069646e-01 2.140070e-01 2.095344e-01 2.612450e-01 3.188889e-01 3.218348e-01 4.061458e-01 4.174927e-01 3.862365e-01 3.192763e-01 3.107778e-01 2.946141e-01 1.491804e-01
<GCONST> 1.081923e+02
<STATE> 4
<MEAN> 39
 -3.277590e+00 -1.418967e+01 -5.805297e+00 -1.309208e+01 -1.273737e+01 -1.000973e+01 -8.852034e+00 4.062748e+00 -1.248851e+00 -2.002896e+00 -4.618172e+00 -3.634587e+00 6.374731e+01 -2.549870e-01 2.061440e+00 5.861039e-02 1.258100e+00 1.088052e+00 5.655002e-03 -1.850589e-01 -1.709296e+00 -8.509109e-01 6.799275e-02 3.498907e-01 1.872753e-01 -2.332700e+00 -5.434622e-01 6.740328e-01 1.159727e-01 3.992649e-01 3.783831e-01 3.133960e-01 3.532273e-01 -4.668525e-01 -2.349297e-01 -2.127772e-02 9.349114e-02 9.084138e-02 -7.504793e-01
<VARIANCE> 39
 1.531933e+01 3.057776e+01 5.746671e+01 5.217720e+01 6.052586e+01 7.634655e+01 9.120684e+01 6.885838e+01 8.436066e+01 6.035895e+01 6.432314e+01 4.510935e+01 2.545554e+01 1.917317e+00 2.787735e+00 3.545124e+00 3.809695e+00 4.040491e+00 4.082644e+00 5.193631e+00 4.816952e+00 4.766917e+00 3.826933e+00 3.704017e+00 3.466878e+00 2.950994e+00 4.333151e-01 3.927132e-01 4.603287e-01 5.292155e-01 6.902265e-01 7.609314e-01 8.062107e-01 8.932785e-01 8.559802e-01 7.089833e-01 7.010830e-01 5.774554e-01 4.603792e-01
<GCONST> 1.332671e+02
<TRANSP> 5
 0.000000e+00 1.000000e+00 0.000000e+00 0.000000e+00 0.000000e+00
 0.000000e+00 5.471317e-01 4.528683e-01 0.000000e+00 0.000000e+00
 0.000000e+00 0.000000e+00 7.785471e-01 2.214529e-01 0.000000e+00
 0.000000e+00 0.000000e+00 0.000000e+00 5.306143e-01 4.693857e-01
 0.000000e+00 0.000000e+00 0.000000e+00 0.000000e+00 0.000000e+00
<ENDHMM>
~h "el"
<BEGINHMM>
<NUMSTATES> 5
<STATE> 2
<MEAN> 39
 -1.220065e+00 -5.251808e+00 -1.096870e+01 -2.279181e+01 -8.741074e+00 2.071852e-02 -8.334889e+00 -6.374285e+00 -5.389519e+00 1.420341e-01 -9.927559e-01 -2.116377e+00 5.821097e+01 1.734196e+00 5.556491e-01 -2.477119e-01 -3.547119e+00 -1.261258e+00 1.461761e+00 7.704189e-02 -3.628853e-01 -5.085703e-01 -4.448560e-01 5.781392e-01 4.764104e-01 6.310042e-01 -6.503801e-01 7.899486e-02 1.180460e-01 6.743496e-01 3.243637e-01 -1.598370e-01 2.432424e-01 3.316164e-01 1.019322e-01 -1.576963e-01 -1.188987e-01 7.951120e-02 -4.671428e-01
<VARIANCE> 39
 1.187201e+01 3.784776e+01 3.708668e+01 6.570803e+01 5.904172e+01 6.199320e+01 6.965745e+01 4.692386e+01 5.110865e+01 5.502161e+01 7.121016e+01 3.501124e+01 2.695412e+01 3.370546e+00 2.633221e+00 3.446800e+00 5.450355e+00 6.010797e+00 4.299861e+00 5.114377e+00 4.765733e+00 4.417616e+00 4.501014e+00 4.318297e+00 3.386864e+00 1.905439e+00 4.603433e-01 4.777677e-01 4.581801e-01 9.291892e-01 7.666579e-01 7.549941e-01 7.759318e-01 7.104929e-01 8.010837e-01 7.451815e-01 7.729002e-01 6.036265e-01 3.721947e-01
<GCONST> 1.330401e+02
<STATE> 3
<MEAN> 39
 1.863297e-05 -1.206758e+00 -1.130812e+01 -2.870827e+01 -1.074161e+01 2.423225e+00 -5.201017e+00 -4.075809e+00 -5.572414e+00 -3.274626e+00 -6.552264e-01 -2.188641e-01 5.620795e+01 -1.076025e-01 5.331278e-01 4.697029e-02 5.075090e-02 1.562828e-01 -1.496258e-01 1.470460e-01 1.908190e-01 -1.576523e-01 -2.049213e-01 -8.323388e-02 -5.814580e-02 -4.468416e-01 -2.813225e-01 -8.869647e-02 6.900556e-02 7.289340e-01 2.786703e-01 -2.249951e-01 -5.337009e-02 -9.455939e-02 1.319729e-02 1.307604e-01 -6.639750e-02 -1.273794e-01 -1.540056e-01
<VARIANCE> 39
 8.667686e+00 3.281807e+01 4.773420e+01 5.599477e+01 7.052799e+01 5.282935e+01 7.254806e+01 5.837239e+01 4.615277e+01 4.449874e+01 4.988801e+01 3.605806e+01 2.283213e+01 3.990699e-01 1.163799e+00 9.437546e-01 2.484773e+00 1.901680e+00 1.671891e+00 1.942259e+00 2.151630e+00 2.138490e+00 1.963614e+00 1.845994e+00 1.641061e+00 6.189734e-01 1.966456e-01 2.230008e-01 2.362930e-01 5.723710e-01 4.585786e-01 3.946147e-01 4.063989e-01 4.453411e-01 4.302230e-01 3.881158e-01 3.804779e-01 3.435451e-01 1.694378e-01
<GCONST> 1.106327e+02
<STATE> 4
<MEAN> 39
 -4.519655e+00 -1.262980e+00 -1.037349e+01 -1.956455e+01 -6.230569e+00 1.666874e-01 -4.780484e+00 -4.650880e+00 -5.762028e+00 -1.858091e+00 -1.623410e+00 -1.925299e+00 5.155421e+01 -1.821181e+00 -3.402342e-01 5.752606e-01 3.126979e+00 1.254872e+00 -9.511645e-01 -1.167739e-04 1.219360e-01 5.633789e-01 2.278630e-01 -4.554162e-01 -3.178498e-01 -1.066838e+00 -3.816168e-01 -1.702014e-01 1.398755e-01 2.580082e-01 -3.881813e-02 -1.500018e-01 4.783903e-02 2.492592e-01 2.043988e-01 -3.946736e-02 -5.877497e-02 4.530125e-02 -1.785495e-02
<VARIANCE> 39
 3.192754e+01 3.336745e+01 3.800897e+01 8.646809e+01 5.927213e+01 5.041299e+01 8.047123e+01 6.437708e+01 6.155170e+01 5.771890e+01 4.721673e+01 3.920474e+01 5.824782e+01 3.695449e+00 3.532242e+00 3.069822e+00 7.454871e+00 5.456024e+00 4.345303e+00 4.976588e+00 4.984570e+00 5.035507e+00 5.232188e+00 4.378482e+00 3.793384e+00 4.437794e+00 6.803522e-01 4.341217e-01 4.473606e-01 1.263695e+00 8.596040e-01 6.094021e-01 8.016307e-01 8.061399e-01 9.415929e-01 9.288328e-01 6.944951e-01 6.445099e-01 5.670943e-01
<GCONST> 1.383344e+02
<TRANSP> 5
 0.000000e+00 1.000000e+00 0.000000e+00 0.000000e+00 0.000000e+00
